ID,output_mean,w1_mean,w2_mean,w3_mean,w4_mean,w5_mean,w6_mean,w7_mean,w8_mean
0,-0.0042638834565877914,-0.0009885990293696523,-0.002313505159690976,0.00029770933906547725,-8.662584150442854e-05,0.0007812315016053617,-0.0004615051730070263,0.0013855431461706758,0.0015647729160264134
1,-0.00427035428583622,-0.0009176770108751953,-0.00230904552154243,0.00029998100944794714,-8.872392936609685e-05,0.0007856225129216909,-0.0004619644896592945,0.0013842217158526182,0.0015633967705070972
2,-0.004265995696187019,-0.0008778964402154088,-0.0023031991440802813,0.0002998663403559476,-9.031769150169566e-05,0.00078817323083058,-0.0004616414662450552,0.0013838628074154258,0.001560515956953168
3,-0.004275619983673096,-0.0008331083226948977,-0.002299120184034109,0.0002997461997438222,-8.990193600766361e-05,0.0007902104989625514,-0.0004630633629858494,0.001383757684379816,0.0015608923276886344
4,-0.00428621843457222,-0.0007947146659716964,-0.0022961015347391367,0.0002992867084685713,-8.983358566183597e-05,0.0007919050403870642,-0.00046460021985694766,0.001383294234983623,0.0015628746477887034
5,-0.0042947642505168915,-0.0007670818013139069,-0.002293862635269761,0.0002994947717525065,-8.976113895187154e-05,0.0007930225692689419,-0.00046618739725090563,0.0013830728130415082,0.0015654779272153974
6,-0.004302979446947575,-0.0007549620931968093,-0.0022923960350453854,0.0003001532459165901,-8.916031947592273e-05,0.0007934557506814599,-0.0004677324031945318,0.001383118680678308,0.001568219973705709
7,-0.004313681274652481,-0.0007446575909852982,-0.0022906954400241375,0.0003008378262165934,-8.784425881458446e-05,0.0007951412117108703,-0.0004690714704338461,0.0013831976102665067,0.001571873901411891
8,-0.004326201975345612,-0.0007166674477048218,-0.0022890132386237383,0.00030128186335787177,-8.716941374586895e-05,0.000797242799308151,-0.00047043702215887606,0.0013829460367560387,0.0015759434318169951
9,-0.0043355608358979225,-0.0006908189970999956,-0.0022864784114062786,0.000300691433949396,-8.739829354453832e-05,0.0007993671461008489,-0.00047113222535699606,0.001382729853503406,0.001578540075570345
10,-0.004345815163105726,-0.000658845470752567,-0.002284054411575198,0.00030020566191524267,-8.768111001700163e-05,0.0008022371330298483,-0.00047110396553762257,0.00138246885035187,0.0015809176256880164
11,-0.004354746546596289,-0.0006350402254611254,-0.0022817011922597885,0.0002996768453158438,-8.743997750570998e-05,0.0008051813347265124,-0.0004706946783699095,0.0013821483589708805,0.0015825086738914251
12,-0.004361368250101805,-0.0006135693984106183,-0.0022801063023507595,0.00029947617440484464,-8.813568274490535e-05,0.0008072084747254848,-0.00047024464583955705,0.0013817398576065898,0.001584230805747211
13,-0.004367078188806772,-0.000599712657276541,-0.002279958687722683,0.0002993361558765173,-8.881851681508124e-05,0.0008083481225185096,-0.00046985491644591093,0.0013814743142575026,0.0015877151163294911
14,-0.004372676368802786,-0.0005890337051823735,-0.0022800753358751535,0.0002985113824252039,-8.96259443834424e-05,0.000808166223578155,-0.00046963433851487935,0.0013813235564157367,0.001593329361639917
15,-0.0043775481171905994,-0.0005754708545282483,-0.0022801626473665237,0.00029746320797130466,-9.044894977705553e-05,0.0008077533566392958,-0.00046946643851697445,0.001381173962727189,0.0015975364949554205
16,-0.004380980506539345,-0.000555379141587764,-0.0022800976876169443,0.00029626049217768013,-9.141759801423177e-05,0.0008069798932410777,-0.00046953620039857924,0.0013810432283207774,0.0016004417557269335
17,-0.004384074360132217,-0.0005339339259080589,-0.0022794404067099094,0.00029522867407649755,-9.236940968548879e-05,0.0008061248809099197,-0.00046949530951678753,0.00138094462454319,0.0016015819273889065
18,-0.004386561922729015,-0.0005065109580755234,-0.0022792976815253496,0.00029392653959803283,-9.320118988398463e-05,0.0008056256338022649,-0.0004695784009527415,0.0013809431111440063,0.001601679716259241
19,-0.004387561697512865,-0.0004816037544514984,-0.002278592437505722,0.00029260406154207885,-9.438950655749068e-05,0.0008051636978052557,-0.0004696850082837045,0.0013809239026159048,0.0016010639956220984
20,-0.004388190805912018,-0.00045359492651186883,-0.0022777251433581114,0.00029141001868993044,-9.530385432299227e-05,0.000804632087238133,-0.0004696790419984609,0.0013808063231408596,0.0016000799369066954
21,-0.004388739354908466,-0.0004305703332647681,-0.0022762329317629337,0.0002903048589359969,-9.593839786248282e-05,0.0008046706207096577,-0.0004694489180110395,0.0013808358926326036,0.0015986107755452394
22,-0.004389018286019564,-0.0004160890821367502,-0.0022746347822248936,0.000289188843453303,-9.651574509916827e-05,0.0008053877972997725,-0.00046917347935959697,0.001380590838380158,0.0015970515087246895
23,-0.0043892464600503445,-0.00040381093276664615,-0.002272992394864559,0.00028820219449698925,-9.667266567703336e-05,0.0008061451953835785,-0.00046885572373867035,0.0013805449707433581,0.0015956854913383722
24,-0.004389327485114336,-0.00039353928877972066,-0.002271015429869294,0.0002874056517612189,-9.664399840403348e-05,0.000806475814897567,-0.0004685516469180584,0.0013804814079776406,0.001595197361893952
25,-0.004390241112560034,-0.0003843232989311218,-0.0022690813057124615,0.00028650183230638504,-9.588957618689165e-05,0.0008066523005254567,-0.0004682449216488749,0.001380626461468637,0.0015947651118040085
26,-0.0043915859423577785,-0.0003798308898694813,-0.0022667692974209785,0.0002856070932466537,-9.410140046384186e-05,0.0008069876348599792,-0.000468011072371155,0.0013806987553834915,0.0015939591685310006
27,-0.004392951261252165,-0.0003784764267038554,-0.002264657523483038,0.00028462038608267903,-9.26545326365158e-05,0.0008072098135016859,-0.000467861071228981,0.0013807467184960842,0.0015937354182824492
28,-0.004394125193357468,-0.0003785504086408764,-0.002262858673930168,0.0002837364736478776,-9.117608715314418e-05,0.000807386648375541,-0.00046805469901300967,0.0013809867668896914,0.0015937736025080085
29,-0.0043944246135652065,-0.00037502951454371214,-0.002261245856061578,0.00028305331943556666,-8.936169615481049e-05,0.0008073649951256812,-0.0004681723366957158,0.001381235895678401,0.0015938881551846862
30,-0.004393866751343012,-0.0003644641546998173,-0.0022603587713092566,0.0002826472627930343,-8.77228521858342e-05,0.0008070406038314104,-0.00046820135321468115,0.0013814291451126337,0.0015936224954202771
31,-0.004394072573632002,-0.00035498247598297894,-0.002259584376588464,0.0002824805269483477,-8.574468665756285e-05,0.0008065001456998289,-0.000468079699203372,0.00138157419860363,0.0015934305265545845
32,-0.004394903313368559,-0.00034236430656164885,-0.0022590544540435076,0.0002826135605573654,-8.426402928307652e-05,0.000805961259175092,-0.0004679305711761117,0.0013817037688568234,0.001592866494320333
33,-0.004396465606987476,-0.00032012868905439973,-0.002258762950077653,0.00028240156825631857,-8.30889111966826e-05,0.0008049264433793724,-0.0004676801327150315,0.0013819142477586865,0.0015917131677269936
34,-0.004396508447825909,-0.00029935219208709896,-0.002257918007671833,0.00028241812833584845,-8.235013228841126e-05,0.000803851115051657,-0.0004673314979299903,0.001381761278025806,0.0015895608812570572
35,-0.0043962313793599606,-0.0002867848670575768,-0.0022571366280317307,0.000282147666439414,-8.207795326597989e-05,0.0008028466836549342,-0.0004671009082812816,0.0013815324055030942,0.0015880584251135588
36,-0.0043960316106677055,-0.0002733178553171456,-0.0022566455882042646,0.0002819227520376444,-8.21970752440393e-05,0.0008015616331249475,-0.0004667419125325978,0.0013811790850013494,0.0015869357157498598
37,-0.004395066294819117,-0.00026782500208355486,-0.0022554858587682247,0.0002817337808664888,-8.236368739744648e-05,0.0008001052192412317,-0.00046629560529254377,0.001380810048431158,0.0015853337245061994
38,-0.00439333776012063,-0.0002737817994784564,-0.0022537410259246826,0.0002809996367432177,-8.258042362285778e-05,0.0007989355945028365,-0.0004659777332562953,0.001380713190883398,0.001584867131896317
39,-0.004391033668071032,-0.0002828749129548669,-0.0022518914192914963,0.0002803156094159931,-8.32101795822382e-05,0.00079773657489568,-0.00046565820230171084,0.0013803958427160978,0.001585059450007975
40,-0.004389177076518536,-0.0002958679979201406,-0.0022499936167150736,0.0002798185159917921,-8.382020314456895e-05,0.0007963384268805385,-0.0004651768540497869,0.0013803630135953426,0.0015857276739552617
41,-0.004386844579130411,-0.00031214384944178164,-0.0022480636835098267,0.00027937127742916346,-8.43927264213562e-05,0.000795592728536576,-0.0004649512411560863,0.0013802178436890244,0.001586665166541934
42,-0.004384752828627825,-0.00032546333386562765,-0.0022462145425379276,0.00027885608142241836,-8.535828965250403e-05,0.0007951648440212011,-0.00046481136814691126,0.001380042522214353,0.0015884109307080507
43,-0.004382163751870394,-0.0003361202834639698,-0.002244199626147747,0.00027865893207490444,-8.627087663626298e-05,0.00079523422755301,-0.0004646058951038867,0.0013800201704725623,0.001590152969583869
44,-0.004380084108561277,-0.0003396370739210397,-0.0022434114944189787,0.00027881740243174136,-8.709430403541774e-05,0.0007957320776768029,-0.0004643825232051313,0.0013801351888105273,0.00159180024638772
45,-0.004379531368613243,-0.00033012611675076187,-0.0022437754087150097,0.0002792693267110735,-8.84616092662327e-05,0.0007962042582221329,-0.00046415391261689365,0.0013802816392853856,0.0015939102740958333
46,-0.004379356745630503,-0.00031594166648574173,-0.0022438722662627697,0.00028008874505758286,-8.97142308531329e-05,0.0007968095596879721,-0.0004639175604097545,0.0013803563779219985,0.0015955837443470955
47,-0.004377727396786213,-0.0002956773096229881,-0.00224447064101696,0.00028073458815924823,-9.086821955861524e-05,0.0007972242310643196,-0.00046408167690970004,0.001380542991682887,0.0015974509296938777
48,-0.004376608412712812,-0.00027460677665658295,-0.002245025709271431,0.0002814854960888624,-9.191135904984549e-05,0.0007971182931214571,-0.0004644037107937038,0.0013809120282530785,0.001599232549779117
49,-0.004374451003968716,-0.00025797903072088957,-0.0022454303689301014,0.00028201041277498007,-9.308975131716579e-05,0.0007965986151248217,-0.0004648368922062218,0.001381034031510353,0.001600964809767902
50,-0.0043733324855566025,-0.00023766618687659502,-0.0022450617980211973,0.0002823506947606802,-9.387353929923847e-05,0.0007959812064655125,-0.0004649295296985656,0.0013811473036184907,0.0016016415320336819
51,-0.004371648654341698,-0.0002172274689655751,-0.002244804287329316,0.0002825837000273168,-9.420113201485947e-05,0.0007955134497024119,-0.0004649711772799492,0.0013813202967867255,0.001602086005732417
52,-0.00436901580542326,-0.00020436884369701147,-0.0022450312972068787,0.00028329688939265907,-9.405082528246567e-05,0.0007949210703372955,-0.00046507769729942083,0.0013815561542287469,0.0016026387456804514
53,-0.00436772033572197,-0.0001979314547497779,-0.0022458492312580347,0.0002837648498825729,-9.378145477967337e-05,0.0007944141980260611,-0.00046495371498167515,0.0013818126171827316,0.0016032196581363678
54,-0.00436613243073225,-0.00019105324463453144,-0.002247115597128868,0.0002844410773832351,-9.352316556032747e-05,0.0007939966744743288,-0.00046472050598822534,0.0013818427687510848,0.001603094395250082
55,-0.004364244174212217,-0.00018994472338818014,-0.0022471437696367502,0.00028497021412476897,-9.280646918341517e-05,0.0007936988258734345,-0.0004643078427761793,0.0013818853767588735,0.0016027980018407106
56,-0.0043612136505544186,-0.0001898445188999176,-0.002246069721877575,0.00028556835604831576,-9.212401346303523e-05,0.0007933948654681444,-0.0004644966684281826,0.0013819659361615777,0.0016031546983867884
57,-0.004358585458248854,-0.0001937811030074954,-0.002245078794658184,0.00028626385028474033,-9.125953511102125e-05,0.0007932648295536637,-0.0004646152665372938,0.001382110989652574,0.0016029176767915487
58,-0.004356804769486189,-0.00020471884636208415,-0.0022438105661422014,0.00028694895445369184,-9.020712604979053e-05,0.0007932597654871643,-0.0004646281595341861,0.001382351852953434,0.001602653879672289
59,-0.004353817086666822,-0.00021883443696424365,-0.0022424354683607817,0.0002875820209737867,-8.918627281673253e-05,0.0007937754271551967,-0.0004647547611966729,0.0013826924841850996,0.0016018428141251206
60,-0.0043508633971214294,-0.00022705331502947956,-0.002241392619907856,0.00028788408963009715,-8.852597238728777e-05,0.000794456631410867,-0.00046492263209074736,0.0013828707160428166,0.0016009972896426916
61,-0.004346630536019802,-0.00022689043544232845,-0.002240662230178714,0.00028827443020418286,-8.825306576909497e-05,0.0007953104795888066,-0.00046520770411007106,0.001383041962981224,0.0016001772601157427
62,-0.004344603046774864,-0.00022580972290597856,-0.0022402789909392595,0.0002886282163672149,-8.79205617820844e-05,0.0007961820811033249,-0.0004654868971556425,0.0013832219410687685,0.0015993030974641442
63,-0.004343184642493725,-0.00022422987967729568,-0.0022409390658140182,0.00028889920213259757,-8.684047497808933e-05,0.0007973204483278096,-0.00046568247489631176,0.00138358015101403,0.00159914989490062
64,-0.004340767860412598,-0.00022436976723838598,-0.002241204958409071,0.0002889019378926605,-8.60644577187486e-05,0.000798405846580863,-0.0004658570105675608,0.0013837841106578708,0.001599180861376226
65,-0.0043386658653616905,-0.00022839255689177662,-0.002241763286292553,0.00028863761690445244,-8.603941387264058e-05,0.0007995183113962412,-0.0004659413534682244,0.0013839307939633727,0.0015996984438970685
66,-0.004336417652666569,-0.00023051183961797506,-0.002242326270788908,0.00028845510678365827,-8.641694148536772e-05,0.0008004357805475593,-0.00046610343270003796,0.0013839780585840344,0.001600059331394732
67,-0.004333208315074444,-0.00023593177320435643,-0.0022433490958064795,0.0002882472472265363,-8.69168943609111e-05,0.0008013892802409828,-0.0004663077706936747,0.0013841091422364116,0.0016008703969419003
68,-0.004329204559326172,-0.0002410608867648989,-0.0022442839108407497,0.0002880626998376101,-8.752584108151495e-05,0.0008022714173421264,-0.00046650622971355915,0.0013842828338965774,0.0016020780894905329
69,-0.004324603825807571,-0.00024816690711304545,-0.0022452527191489935,0.00028808487695641816,-8.753800648264587e-05,0.0008028525044210255,-0.00046641056542284787,0.0013844238128513098,0.00160307961050421
70,-0.004320649430155754,-0.00025147676933556795,-0.002246074378490448,0.0002882067346945405,-8.750351844355464e-05,0.0008034913917072117,-0.00046644170652143657,0.0013845115900039673,0.0016037792665883899
71,-0.004316217266023159,-0.0002549375931266695,-0.002247004769742489,0.00028828223003074527,-8.72848613653332e-05,0.000803986273240298,-0.00046676897909492254,0.0013845369685441256,0.0016049182740971446
72,-0.0043126302771270275,-0.00025428898516111076,-0.002247829455882311,0.0002884022251237184,-8.735960000194609e-05,0.0008045787690207362,-0.0004671545175369829,0.0013842874905094504,0.001606035977602005
73,-0.004310104995965958,-0.0002576783299446106,-0.002248360775411129,0.00028815597761422396,-8.728720422368497e-05,0.0008051258628256619,-0.0004676166281569749,0.0013840559404343367,0.0016063478542491794
74,-0.004308517090976238,-0.0002658236480783671,-0.002249296521767974,0.0002880319661926478,-8.691872062627226e-05,0.0008055393118411303,-0.00046819273848086596,0.0013837820151820779,0.0016062981449067593
75,-0.004307528492063284,-0.0002711837296374142,-0.0022505109664052725,0.00028774378006346524,-8.686410001246259e-05,0.000806022493634373,-0.0004687510954681784,0.0013832097174599767,0.0016053119907155633
76,-0.004307519644498825,-0.0002766192483250052,-0.0022516120225191116,0.0002875043428502977,-8.693218842381611e-05,0.0008061308180913329,-0.0004693414957728237,0.001382550224661827,0.0016041906783357263
77,-0.004306466784328222,-0.0002789892314467579,-0.002252610633149743,0.00028724782168865204,-8.717519813217223e-05,0.000805996241979301,-0.00046968646347522736,0.0013819074956700206,0.0016030817059800029
78,-0.004305944312363863,-0.00027951321681030095,-0.002252846024930477,0.0002869485761038959,-8.755610178923234e-05,0.000805933028459549,-0.00047000517952255905,0.0013815321726724505,0.0016009092796593904
79,-0.004303951282054186,-0.00027775217313319445,-0.0022528909612447023,0.00028696577646769583,-8.799188799457625e-05,0.0008055680664256215,-0.0004703128943219781,0.001381225767545402,0.001598296337760985
80,-0.004301669541746378,-0.00027519205468706787,-0.0022526048123836517,0.0002869062591344118,-8.85122935869731e-05,0.0008049793541431427,-0.0004703078302554786,0.001380839617922902,0.0015955374110490084
81,-0.004300134256482124,-0.00027057784609496593,-0.002252530073747039,0.0002870441530831158,-8.892072946764529e-05,0.000804658280685544,-0.0004704290768131614,0.0013805440394207835,0.0015926253981888294
82,-0.004299343563616276,-0.00026749452808871865,-0.0022515798918902874,0.0002869458985514939,-8.950593473855406e-05,0.000804143724963069,-0.00047044578241184354,0.0013802157482132316,0.0015906048938632011
83,-0.0042984383180737495,-0.00027379189850762486,-0.002250563818961382,0.00028706638840958476,-9.014056558953598e-05,0.0008037926163524389,-0.0004704534076154232,0.0013795822160318494,0.0015892449300736189
84,-0.004297479055821896,-0.00028067154926247895,-0.002249534009024501,0.0002870977623388171,-9.070809028344229e-05,0.0008035534992814064,-0.0004703905724454671,0.0013789695221930742,0.001587746199220419
85,-0.004297641105949879,-0.00028663172270171344,-0.002248173113912344,0.00028720396221615374,-9.128163947025314e-05,0.0008031165925785899,-0.00047019781777635217,0.001378464512526989,0.0015867346664890647
86,-0.004297152161598206,-0.0002846296993084252,-0.0022478061728179455,0.0002872386248782277,-9.209765266859904e-05,0.0008025370771065354,-0.00047051836736500263,0.0013781253946945071,0.0015860839048400521
87,-0.004297338426113129,-0.00028034820570610464,-0.002247763331979513,0.0002874341153074056,-9.268412395613268e-05,0.0008018178050406277,-0.0004706757899839431,0.0013777364511042833,0.0015859827399253845
88,-0.004296314902603626,-0.0002734427689574659,-0.0022479689214378595,0.0002874427882488817,-9.318283264292404e-05,0.0008010574383661151,-0.0004709250060841441,0.0013775002444162965,0.001585590303875506
89,-0.004294247832149267,-0.00026309318491257727,-0.0022476892918348312,0.0002877353981602937,-9.366268204757944e-05,0.0008005914860405028,-0.00047128883306868374,0.0013771654339507222,0.0015850374475121498
90,-0.004292659927159548,-0.000256052881013602,-0.0022473938297480345,0.0002880906395148486,-9.407759353052825e-05,0.0008002149988897145,-0.0004715832765214145,0.001376900589093566,0.0015847643371671438
91,-0.004291574005037546,-0.00024548484361730516,-0.0022469093091785908,0.00028819197905249894,-9.444962779525667e-05,0.0008000743691809475,-0.00047183764399960637,0.0013769755605608225,0.0015845271991565824
92,-0.004290200769901276,-0.00023966305889189243,-0.0022462436463683844,0.0002883230918087065,-9.533443517284468e-05,0.0007997799548320472,-0.00047228255425579846,0.0013772074598819017,0.0015842001885175705
93,-0.004287818446755409,-0.00023976390366442502,-0.0022456308361142874,0.00028860627207905054,-9.619384218240157e-05,0.0007996152271516621,-0.00047269294736906886,0.0013773351674899459,0.0015841684071347117
94,-0.004286353010684252,-0.00024337225477211177,-0.0022443081252276897,0.0002889732422772795,-9.689540456747636e-05,0.0007995815831236541,-0.0004728407075162977,0.0013777019921690226,0.0015836760867387056
95,-0.00428481912240386,-0.0002461133699398488,-0.00224271765910089,0.0002893567143473774,-9.749405580805615e-05,0.0007993669714778662,-0.0004728918429464102,0.0013780687004327774,0.0015835625817999244
96,-0.004283323418349028,-0.0002446082071401179,-0.0022409686353057623,0.0002896323858294636,-9.791418415261433e-05,0.0007989553268998861,-0.0004728967905975878,0.001378523651510477,0.0015833942452445626
97,-0.004282105714082718,-0.0002444880083203316,-0.00223949970677495,0.00029001792427152395,-9.797091479413211e-05,0.0007984606781974435,-0.0004727352352347225,0.0013788467040285468,0.0015837048413231969
98,-0.0042813546024262905,-0.0002424169215373695,-0.0022381951566785574,0.00029070457094348967,-9.805574518395588e-05,0.0007980602094903588,-0.00047257510595954955,0.0013791245874017477,0.0015839588595554233
99,-0.004281315952539444,-0.00023513886844739318,-0.00223743449896574,0.00029155678930692375,-9.826858149608597e-05,0.0007976231281645596,-0.000472302723210305,0.001379427150823176,0.0015836927341297269
100,-0.004281301517039537,-0.00023296750441659242,-0.0022365935146808624,0.0002923184947576374,-9.815790690481663e-05,0.0007972746971063316,-0.00047209064359776676,0.001379673951305449,0.001582923112437129
101,-0.004281571600586176,-0.00023351186246145517,-0.0022361567243933678,0.00029289128724485636,-9.810591291170567e-05,0.0007971009472385049,-0.00047184486174955964,0.001379902707412839,0.0015825044829398394
102,-0.0042830887250602245,-0.00023788052203599364,-0.002236540662124753,0.0002935607626568526,-9.817448881221935e-05,0.0007968570571392775,-0.0004717218689620495,0.0013802374014630914,0.0015817662933841348
103,-0.0042843264527618885,-0.00024633051361888647,-0.0022373960819095373,0.000294304481940344,-9.833340300247073e-05,0.0007971161394380033,-0.0004714630194939673,0.001380409812554717,0.0015809934120625257
104,-0.00428564939647913,-0.00025340536376461387,-0.0022381325252354145,0.0002953133953269571,-9.845651220530272e-05,0.0007974000182002783,-0.00047117521171458066,0.0013803982874378562,0.0015798193635419011
105,-0.004287093412131071,-0.00025482673663645983,-0.002239096676930785,0.00029640132561326027,-9.867687185760587e-05,0.0007977208006195724,-0.0004705564060714096,0.0013803644105792046,0.0015785819850862026
106,-0.0042878626845777035,-0.00025199464289471507,-0.002240181900560856,0.0002969887282233685,-9.89933469099924e-05,0.000797986111138016,-0.0004700829740613699,0.0013803103938698769,0.001577231683768332
107,-0.00428777514025569,-0.0002484525030013174,-0.0022412447724491358,0.00029773617279715836,-9.908828360494226e-05,0.0007981520029716194,-0.00046983532956801355,0.0013801984023302794,0.0015761200338602066
108,-0.004288233816623688,-0.00024636375019326806,-0.0022418417502194643,0.0002981878351420164,-9.900594159262255e-05,0.0007984908297657967,-0.0004697955446317792,0.001380192581564188,0.0015763698611408472
109,-0.004287530668079853,-0.00024642693460918963,-0.002241745823994279,0.0002985121391247958,-9.88830579444766e-05,0.0007986717391759157,-0.0004699197306763381,0.0013801319291815162,0.0015770425088703632
110,-0.004287919960916042,-0.0002479728718753904,-0.0022410654928535223,0.0002991737856063992,-9.873587259789929e-05,0.0007986209820955992,-0.000469901628093794,0.001380134024657309,0.0015776928048580885
111,-0.004287322983145714,-0.00025287267635576427,-0.00224018725566566,0.000299975392408669,-9.891504305414855e-05,0.0007985014235600829,-0.00046991585986688733,0.0013800387969240546,0.0015788269229233265
112,-0.004286057315766811,-0.00025685373111627996,-0.0022399965673685074,0.00030104650068096817,-9.904007310979068e-05,0.0007984873955138028,-0.0004699761630035937,0.001379788271151483,0.001579789910465479
113,-0.00428367592394352,-0.0002576362167019397,-0.002239442430436611,0.0003018129791598767,-9.934204717865214e-05,0.0007983215618878603,-0.0004699764831457287,0.001379296649247408,0.0015811420744284987
114,-0.00428179744631052,-0.000253892270848155,-0.0022390522062778473,0.00030275434255599976,-9.973368287319317e-05,0.0007979960064403713,-0.00046997080789878964,0.0013789951335638762,0.0015814990038052201
115,-0.004278526175767183,-0.00025056939921341836,-0.002238944871351123,0.00030377632356248796,-9.99214535113424e-05,0.0007979539805091918,-0.00046996059245429933,0.0013788362266495824,0.0015814746730029583
116,-0.0042751445434987545,-0.00025031488621607423,-0.0022393143735826015,0.0003047842183150351,-9.993715502787381e-05,0.0007977501954883337,-0.0004699115816038102,0.0013785278424620628,0.0015822317218407989
117,-0.0042713056318461895,-0.0002431127504678443,-0.0022399243898689747,0.00030554828117601573,-9.992952982429415e-05,0.0007972415187396109,-0.00046993818250484765,0.0013782016467303038,0.001583229866810143
118,-0.004267876967787743,-0.00023396270989906043,-0.002240952802821994,0.0003059179289266467,-0.00010000307520385832,0.0007973170722834766,-0.0004701036086771637,0.0013778875581920147,0.0015828078612685204
119,-0.0042647202499210835,-0.00022987280681263655,-0.0022422957699745893,0.0003063348412979394,-9.978367597796023e-05,0.0007975604967214167,-0.0004701149300672114,0.001377677544951439,0.0015816770028322935
120,-0.004260621033608913,-0.00022778734273742884,-0.002243209630250931,0.0003063749463763088,-9.919055446516722e-05,0.0007977414643391967,-0.0004700947320088744,0.0013773594982922077,0.0015791441546753049
121,-0.004256182350218296,-0.0002328858827240765,-0.0022439281456172466,0.00030633434653282166,-9.895949915517122e-05,0.0007976956549100578,-0.00047006874228827655,0.0013770638033747673,0.0015765910502523184
122,-0.004252017941325903,-0.00024317900533787906,-0.002244449919089675,0.0003064466000068933,-9.877419506665319e-05,0.0007973252213560045,-0.00046994761214591563,0.0013767476193606853,0.0015743779949843884
123,-0.004248806741088629,-0.0002504635776858777,-0.002244871575385332,0.00030659796902909875,-9.847052569966763e-05,0.0007971234153956175,-0.00046986801316961646,0.0013765273615717888,0.0015714275650680065
124,-0.004246057011187077,-0.0002506914606783539,-0.0022454673890024424,0.00030667430837638676,-9.837644029175863e-05,0.0007970178266987205,-0.00046987985842861235,0.0013763949973508716,0.0015691762091591954
125,-0.004244552459567785,-0.0002513932413421571,-0.0022454848513007164,0.0003069063532166183,-9.83789941528812e-05,0.000797195069026202,-0.0004695221141446382,0.0013764037285000086,0.0015657827025279403
126,-0.004243703559041023,-0.0002522215654607862,-0.0022451046388596296,0.00030698769842274487,-9.855441749095917e-05,0.0007972800522111356,-0.0004694692324846983,0.0013761707814410329,0.0015616290038451552
127,-0.004242755472660065,-0.00025001075118780136,-0.002244584960862994,0.0003066721255891025,-9.890078217722476e-05,0.0007972728344611824,-0.00046972098061814904,0.001376014668494463,0.0015580910257995129
128,-0.004241005517542362,-0.0002455911599099636,-0.002244439674541354,0.00030623667407780886,-9.959845920093358e-05,0.0007972525781951845,-0.0004700463905464858,0.0013758373679593205,0.0015545698115602136
129,-0.004239785019308329,-0.0002458558592479676,-0.002244325587525964,0.0003057564899791032,-0.00010002234193962067,0.0007975815096870065,-0.0004702283476945013,0.001375728053972125,0.0015517068095505238
130,-0.004239117261022329,-0.0002468024904374033,-0.002244700910523534,0.00030547776259481907,-0.00010062303772429004,0.0007981675444170833,-0.00047016391181387007,0.0013756047701463103,0.0015497459098696709
131,-0.004239510744810104,-0.00024840980768203735,-0.002244708826765418,0.00030485729803331196,-0.00010089154238812625,0.0007988148718141019,-0.000470113183837384,0.001375572057440877,0.0015478942077606916
132,-0.004239313770085573,-0.0002481723204255104,-0.002244127681478858,0.00030434754444286227,-0.00010073452722281218,0.0007993172039277852,-0.00047011423157528043,0.0013756329426541924,0.0015458875568583608
133,-0.004240230657160282,-0.0002460944524500519,-0.002243736060336232,0.00030395903741009533,-0.00010044471855508164,0.0007997220382094383,-0.00047015835298225284,0.0013755093095824122,0.0015445975586771965
134,-0.004241719841957092,-0.00024570635287091136,-0.002243295544758439,0.00030362411052919924,-9.996816515922546e-05,0.0008000163361430168,-0.0004702356818597764,0.0013753136154264212,0.001544449245557189
135,-0.00424322672188282,-0.00025196420028805733,-0.002242287853732705,0.00030313170282170177,-9.941661119228229e-05,0.0008005705894902349,-0.00047049016575329006,0.001374850864522159,0.0015453123487532139
136,-0.004244411829859018,-0.0002611291711218655,-0.0022421979811042547,0.00030243684886954725,-9.899004362523556e-05,0.000801511574536562,-0.00047076307237148285,0.0013743953313678503,0.0015460668364539742
137,-0.004244623240083456,-0.0002694020513445139,-0.0022420890163630247,0.0003014204849023372,-9.856919496087357e-05,0.0008025039569474757,-0.00047125027049332857,0.0013738581910729408,0.0015466877957805991
138,-0.004246990662068129,-0.00027628050884231925,-0.002242946531623602,0.00030069073545746505,-9.851984214037657e-05,0.0008035363280214369,-0.0004716833063866943,0.0013737898552790284,0.0015468598576262593
139,-0.004247759934514761,-0.0002785828255582601,-0.0022434983402490616,0.0003000473079737276,-9.855159441940486e-05,0.0008042928529903293,-0.00047214425285346806,0.00137379951775074,0.0015467152697965503
140,-0.0042496626265347,-0.00028066796949133277,-0.002243606373667717,0.00029939785599708557,-9.885062900139019e-05,0.0008048402378335595,-0.00047248107148334384,0.0013738615671172738,0.0015455204993486404
141,-0.004252793733030558,-0.00027783794212155044,-0.0022438771557062864,0.0002987783227581531,-9.88498650258407e-05,0.000805376679636538,-0.00047289265785366297,0.001373995910398662,0.0015437552938237786
142,-0.004256430547684431,-0.00027511606458574533,-0.002243836410343647,0.0002983033482450992,-9.885102190310135e-05,0.0008059150422923267,-0.00047321696183644235,0.00137423281557858,0.0015419845003634691
143,-0.004258244764059782,-0.0002674776769708842,-0.0022428054362535477,0.00029766798252239823,-9.953298285836354e-05,0.0008064110297709703,-0.0004733684763778001,0.001374501152895391,0.0015399061376228929
144,-0.004259694367647171,-0.0002625750785227865,-0.002242007991299033,0.0002967847394756973,-0.00010024139191955328,0.0008067298331297934,-0.00047340660239569843,0.0013751338701695204,0.0015364661812782288
145,-0.004261218011379242,-0.0002614101686049253,-0.002241177950054407,0.00029594238731078804,-0.0001007664977805689,0.0008068080642260611,-0.0004736678674817085,0.0013757579727098346,0.0015325028216466308
146,-0.004263177048414946,-0.0002615035045892,-0.0022401378955692053,0.00029528469895012677,-0.00010156223288504407,0.0008067209855653346,-0.00047395736328326166,0.001376408152282238,0.0015290484298020601
147,-0.0042651048861444,-0.0002627237990964204,-0.00223880959674716,0.0002944616717286408,-0.00010202062549069524,0.0008065173751674592,-0.00047416574670933187,0.0013771075755357742,0.0015263796085491776
148,-0.004266789648681879,-0.0002663155901245773,-0.0022375835105776787,0.0002937981626018882,-0.00010205266153207049,0.0008064255234785378,-0.000474456581287086,0.0013776381965726614,0.0015255211619660258
149,-0.004268416669219732,-0.0002683275961317122,-0.0022361641749739647,0.0002931385824922472,-0.00010207820741925389,0.0008063329150900245,-0.00047483856906183064,0.0013779352884739637,0.0015250053256750107
150,-0.004269826225936413,-0.0002696998999454081,-0.0022345841862261295,0.0002927394525613636,-0.00010191386536462232,0.0008062785491347313,-0.00047520152293145657,0.0013780827866867185,0.001524553052149713
151,-0.0042715296149253845,-0.00027339596999809146,-0.002232830272987485,0.0002927632594946772,-0.00010193674825131893,0.0008062691194936633,-0.00047559995437040925,0.0013783489121124148,0.0015247728442773223
152,-0.00427260622382164,-0.0002735753369051963,-0.002231552265584469,0.00029271465609781444,-0.00010213270434178412,0.0008062677807174623,-0.0004760363372042775,0.0013786432100459933,0.0015254556201398373
153,-0.0042734406888484955,-0.00027344649424776435,-0.0022305541206151247,0.0002933352079708129,-0.00010258636757498607,0.0008061385597102344,-0.0004764566256199032,0.0013788824435323477,0.0015260351356118917
154,-0.0042748101986944675,-0.00027471603243611753,-0.0022301478311419487,0.0002941554703284055,-0.00010285104508511722,0.0008059940882958472,-0.0004768980434164405,0.001378999906592071,0.001527103828266263
155,-0.004275966435670853,-0.0002756016911007464,-0.0022297066170722246,0.0002947493630927056,-0.000102971687738318,0.000805395538918674,-0.00047742287279106677,0.0013795002596452832,0.00152833410538733
156,-0.004277228377759457,-0.0002769612183328718,-0.0022297946270555258,0.0002955232048407197,-0.00010301779548171908,0.0008045980357564986,-0.00047767700743861496,0.0013802904868498445,0.0015300596132874489
157,-0.00427671754732728,-0.0002770703285932541,-0.002230355516076088,0.00029676544363610446,-0.00010307253978680819,0.0008037956431508064,-0.000477932277135551,0.0013810965465381742,0.0015305207343772054
158,-0.004275857005268335,-0.000278613471891731,-0.0022309396881610155,0.00029813687433488667,-0.0001031694482662715,0.0008030416793189943,-0.0004781227617058903,0.0013818028382956982,0.0015306875575333834
159,-0.004274305421859026,-0.00027865293668583035,-0.002231020713225007,0.0002993324014823884,-0.00010320927685825154,0.0008023780537769198,-0.00047828632523305714,0.001382571761496365,0.0015314208576455712
160,-0.004273266065865755,-0.0002785087563097477,-0.0022309613414108753,0.00030041622812859714,-0.00010275500244461,0.0008015796192921698,-0.0004785001219715923,0.0013832871336489916,0.0015320938546210527
161,-0.004272653255611658,-0.0002817985077854246,-0.0022313520312309265,0.00030165023053996265,-0.0001020030613290146,0.0008012425969354808,-0.00047862378414720297,0.0013839794555678964,0.0015320532256737351
162,-0.004271394573152065,-0.00028140179347246885,-0.0022318335250020027,0.00030263952794484794,-0.00010146394197363406,0.000800705049186945,-0.00047889823326840997,0.0013845523353666067,0.0015326079446822405
163,-0.004270198289304972,-0.0002841952664311975,-0.0022318148985505104,0.0003036130510736257,-0.00010091800504596904,0.0008000842644833028,-0.00047881522914394736,0.0013851323164999485,0.0015336700016632676
164,-0.004269168246537447,-0.000286054884782061,-0.0022318996489048004,0.00030479527777060866,-0.00010021730122389272,0.0007999301888048649,-0.000478672533063218,0.0013855688739567995,0.0015347360167652369
165,-0.004268725868314505,-0.0002890980103984475,-0.0022321215365082026,0.00030562985921278596,-9.950548701453954e-05,0.0007997945067472756,-0.00047847520909272134,0.001385752111673355,0.0015348887536674738
166,-0.004268711432814598,-0.0002905165310949087,-0.0022326242178678513,0.0003068434598390013,-9.908642095979303e-05,0.0008002778049558401,-0.0004783268377650529,0.0013857573503628373,0.0015350001631304622
167,-0.004268353804945946,-0.0002944341395050287,-0.0022333264350891113,0.00030840994440950453,-9.858320845523849e-05,0.0008007610449567437,-0.0004783242766279727,0.0013857224257662892,0.0015346743166446686
168,-0.004268764518201351,-0.00029641090077348053,-0.0022341401781886816,0.000309509108774364,-9.834070806391537e-05,0.0008010591845959425,-0.00047838478349149227,0.0013857029844075441,0.001533975126221776
169,-0.004267003387212753,-0.00029733506380580366,-0.0022348358761519194,0.00031101086642593145,-9.811841300688684e-05,0.0008012980106286705,-0.00047874776646494865,0.0013857129961252213,0.0015329080633819103
170,-0.004265334457159042,-0.000297964463243261,-0.0022352878004312515,0.00031251064501702785,-9.787781891645864e-05,0.0008013693150132895,-0.00047898065531626344,0.001385515439324081,0.0015314497286453843
171,-0.004261727444827557,-0.0002941889688372612,-0.002235593507066369,0.0003136904560960829,-9.762103582033888e-05,0.0008012194884940982,-0.0004791871178895235,0.0013852679403498769,0.0015297859208658338
172,-0.004258338827639818,-0.0002911524788942188,-0.002235726686194539,0.00031458280864171684,-9.744754788698629e-05,0.0008007124997675419,-0.0004794630513060838,0.0013851927360519767,0.0015286566922441125
173,-0.004256255459040403,-0.00027829999453388155,-0.002236288972198963,0.00031520871561951935,-9.711377788335085e-05,0.0008005492854863405,-0.0004797981819137931,0.0013850146206095815,0.0015273886965587735
174,-0.0042547606863081455,-0.0002660632017068565,-0.0022364312317222357,0.0003160380001645535,-9.693003084976226e-05,0.0008003008551895618,-0.0004800523165613413,0.001384846167638898,0.0015268160495907068
175,-0.00425366498529911,-0.00024595033028163016,-0.002236141823232174,0.00031695893267169595,-9.672417945694178e-05,0.0007999782101251185,-0.0004804563650395721,0.0013847789959982038,0.0015262751840054989
176,-0.00425313413143158,-0.00022828052169643342,-0.002236276399344206,0.0003175879246555269,-9.649452840676531e-05,0.0007993457838892937,-0.0004805759235750884,0.0013847129885107279,0.0015252023003995419
177,-0.004253344610333443,-0.00021755180205218494,-0.0022362309973686934,0.0003180901985615492,-9.640222560847178e-05,0.0007990477024577558,-0.0004806086653843522,0.0013845473295077682,0.001524091698229313
178,-0.004254216328263283,-0.00020754864090122283,-0.0022360372822731733,0.0003186096728313714,-9.654511814005673e-05,0.0007987773278728127,-0.00048080767737701535,0.001384701463393867,0.001523431739769876
179,-0.004254395142197609,-0.00020200046128593385,-0.0022352084051817656,0.00031931858393363655,-9.708425932331011e-05,0.0007991178426891565,-0.0004809710953850299,0.0013844907516613603,0.0015230798162519932
180,-0.004255686420947313,-0.00020302833581808954,-0.0022342081647366285,0.00032008992275223136,-9.744408453116193e-05,0.0007992191822268069,-0.00048095372039824724,0.0013843585038557649,0.0015227231197059155
181,-0.004255964886397123,-0.00021505744371097535,-0.0022325830068439245,0.0003210256400052458,-9.783928544493392e-05,0.0007993280305527151,-0.00048101425636559725,0.0013841494219377637,0.0015223304508253932
182,-0.004256326239556074,-0.00022686274314764887,-0.002231287071481347,0.00032161441049538553,-9.803326975088567e-05,0.0007996981148608029,-0.00048129245988093317,0.0013837638543918729,0.0015225955285131931
183,-0.004257176537066698,-0.00023867370327934623,-0.002229490550234914,0.0003222510276827961,-9.833308286033571e-05,0.0008000190136954188,-0.0004816446453332901,0.0013837497681379318,0.0015231504803523421
184,-0.004257918801158667,-0.00024828771711327136,-0.002227636519819498,0.00032293470576405525,-9.8692427854985e-05,0.0008004954433999956,-0.0004819489549845457,0.0013835952850058675,0.001523881684988737
185,-0.004258131142705679,-0.00025470496620982885,-0.002226273762062192,0.0003235113399568945,-9.87825624179095e-05,0.0008006973657757044,-0.0004820337053388357,0.0013834352139383554,0.0015240168431773782
186,-0.004258318804204464,-0.0002624505141284317,-0.002225134987384081,0.0003239079669583589,-9.890707588056102e-05,0.0008006658754311502,-0.0004820424655918032,0.0013832045951858163,0.0015245943795889616
187,-0.004258000757545233,-0.000262550194747746,-0.002224286086857319,0.00032419455237686634,-9.90092012216337e-05,0.0008003913098946214,-0.000482013332657516,0.001383202034048736,0.0015245965914800763
188,-0.004257792606949806,-0.0002474859938956797,-0.0022238001693040133,0.0003241333179175854,-9.947424405254424e-05,0.0007999033550731838,-0.00048219988821074367,0.0013832495315000415,0.0015248681884258986
189,-0.004258017521351576,-0.0002298735489603132,-0.002223545452579856,0.00032410857966169715,-9.981822950066999e-05,0.0007992388564161956,-0.0004824416828341782,0.001383211580105126,0.0015251492150127888
190,-0.004258591216057539,-0.00021550703968387097,-0.002223013434559107,0.00032417767215520144,-0.0001001619893941097,0.0007986489799804986,-0.0004823933122679591,0.0013834183337166905,0.0015266328118741512
191,-0.004258549306541681,-0.00021256123727653176,-0.0022223603446036577,0.0003241469676140696,-0.00010017383465310559,0.0007982717361301184,-0.0004823598137591034,0.0013835859717801213,0.0015283540124073625
192,-0.004258563742041588,-0.00021199401817284524,-0.0022220255341380835,0.00032420625211670995,-0.00010012473649112508,0.0007979593356139958,-0.0004823248600587249,0.0013838190352544188,0.0015295170014724135
193,-0.004258309956640005,-0.00021594527061097324,-0.0022215060889720917,0.0003240480145905167,-9.994762513088062e-05,0.0007978134090080857,-0.0004823350755032152,0.0013840921455994248,0.0015304225962609053
194,-0.004258051048964262,-0.00021648195979651064,-0.0022212713956832886,0.000323935819324106,-9.966296056518331e-05,0.0007976999040693045,-0.00048246889491565526,0.0013842881890013814,0.0015323760453611612
195,-0.00425772275775671,-0.0002250996622024104,-0.002221145201474428,0.00032395930611528456,-9.929620864568278e-05,0.0007975845946930349,-0.0004827103402931243,0.0013843812048435211,0.0015344979474321008
196,-0.00425731809809804,-0.0002434553753118962,-0.002220649505034089,0.0003239052603021264,-9.852497169049457e-05,0.0007975431508384645,-0.0004828667442779988,0.0013843865599483252,0.0015357412630692124
197,-0.004257791209965944,-0.00025645154528319836,-0.0022202429827302694,0.0003236385527998209,-9.765326831256971e-05,0.000797411659732461,-0.0004828919190913439,0.001384345581755042,0.0015364822465926409
198,-0.004257849883288145,-0.00026638791314326227,-0.0022196797654032707,0.0003234197502024472,-9.694911568658426e-05,0.0007972735911607742,-0.00048276313464157283,0.0013842657208442688,0.001537224045023322
199,-0.004258869681507349,-0.00027526236954145133,-0.0022192385513335466,0.00032302606268785894,-9.615386079531163e-05,0.0007970641599968076,-0.0004826545191463083,0.0013839646708220243,0.0015376495430245996
200,-0.004260142799466848,-0.0002820657682605088,-0.002218567067757249,0.0003228303394280374,-9.549235255690292e-05,0.0007962284726090729,-0.0004826287040486932,0.0013837614096701145,0.0015379267279058695
201,-0.004261727910488844,-0.00029285563505254686,-0.0022179861553013325,0.0003226914268452674,-9.485518967267126e-05,0.0007955696200951934,-0.0004826958174817264,0.00138355593662709,0.0015381762059405446
202,-0.004263459239155054,-0.0003102368500549346,-0.0022166038397699594,0.00032255996484309435,-9.41971957217902e-05,0.0007944671669974923,-0.000482568284496665,0.001383537077344954,0.0015374347567558289
203,-0.004265293478965759,-0.0003193489683326334,-0.0022149423602968454,0.0003220716316718608,-9.3480855866801e-05,0.0007934981840662658,-0.0004826302465517074,0.001383384340442717,0.0015352991176769137
204,-0.004266435280442238,-0.0003246548294555396,-0.0022136494517326355,0.0003214551252312958,-9.280154336011037e-05,0.0007927986443974078,-0.0004826359509024769,0.0013834696728736162,0.0015332072507590055
205,-0.004266294650733471,-0.0003273086913395673,-0.002212829189375043,0.0003210772410966456,-9.2101632617414e-05,0.0007923360681161284,-0.00048276802408508956,0.001383560593239963,0.0015315718483179808
206,-0.004266108851879835,-0.00032594118965789676,-0.002211714396253228,0.00032063311664387584,-9.15129276108928e-05,0.000791889033280313,-0.0004829486133530736,0.0013835043646395206,0.0015305699780583382
207,-0.004265422001481056,-0.00032585376175120473,-0.002210627542808652,0.00032033983734436333,-9.137562301475555e-05,0.0007916965405456722,-0.00048318348126485944,0.001383241731673479,0.001529684872366488
208,-0.004267260432243347,-0.00032561231637373567,-0.0022101111244410276,0.0003203784581273794,-9.138694440480322e-05,0.000792360573541373,-0.0004834129649680108,0.0013834044802933931,0.001528957043774426
209,-0.004267167299985886,-0.00032103838748298585,-0.0022097222972661257,0.0003203018568456173,-9.12109317141585e-05,0.0007928362465463579,-0.0004837182932533324,0.0013836550060659647,0.0015278575010597706
210,-0.004265786148607731,-0.0003155564481858164,-0.0022092422004789114,0.00032013654708862305,-9.063244215212762e-05,0.0007931270520202816,-0.0004841532791033387,0.0013836657162755728,0.0015274172183126211
211,-0.0042649428360164165,-0.00030764652183279395,-0.0022090214770287275,0.00032001116778701544,-8.970580529421568e-05,0.0007932338630780578,-0.000484371033962816,0.001383712631650269,0.0015260381624102592
212,-0.004263720475137234,-0.0003012346278410405,-0.0022088445257395506,0.0003197006299160421,-8.882919064490125e-05,0.0007932698936201632,-0.00048446556320413947,0.0013835800345987082,0.0015247155679389834
213,-0.004261374473571777,-0.00030261618667282164,-0.0022084203083068132,0.0003193286247551441,-8.80409570527263e-05,0.0007934271707199514,-0.0004845288349315524,0.0013834459241479635,0.0015238870400935411
214,-0.00425924314185977,-0.00030905925086699426,-0.0022078086622059345,0.00031885362113825977,-8.715368312550709e-05,0.0007939476636238396,-0.0004845602670684457,0.0013833902776241302,0.0015228999545797706
215,-0.0042578475549817085,-0.00031628398573957384,-0.0022071318235248327,0.0003181605425197631,-8.641536260256544e-05,0.0007939940551295877,-0.00048439003876410425,0.0013832543045282364,0.0015217254403978586
216,-0.004256480373442173,-0.00032461804221384227,-0.0022064223885536194,0.0003174041921738535,-8.605189941590652e-05,0.0007943878881633282,-0.0004842639609705657,0.0013831667602062225,0.0015201362548395991
217,-0.004255370236933231,-0.00032813550205901265,-0.0022058235481381416,0.0003165326197631657,-8.54411264299415e-05,0.0007951040752232075,-0.0004840857000090182,0.0013831283431500196,0.0015186546370387077
218,-0.004253854975104332,-0.0003327309968881309,-0.0022054824512451887,0.00031569943530485034,-8.507203892804682e-05,0.0007957296329550445,-0.0004839172470383346,0.0013833290431648493,0.0015174587024375796
219,-0.004252856597304344,-0.00033357623033225536,-0.00220563355833292,0.0003148577525280416,-8.531638741260394e-05,0.0007965033873915672,-0.0004837093292735517,0.0013833696721121669,0.0015159464674070477
220,-0.004252048209309578,-0.00033235043520107865,-0.0022060214541852474,0.0003143143840134144,-8.610863005742431e-05,0.0007970646256580949,-0.00048356864135712385,0.001383329159580171,0.0015141841722652316
221,-0.004253360442817211,-0.0003331191255711019,-0.0022061860654503107,0.0003137017774861306,-8.676123252371326e-05,0.0007980067748576403,-0.0004833217244595289,0.0013834843412041664,0.001512669725343585
222,-0.004254328552633524,-0.00033428185270167887,-0.0022062300704419613,0.00031310287886299193,-8.756740135140717e-05,0.0007986927521415055,-0.00048298711772076786,0.0013837742153555155,0.0015103558544069529
223,-0.004255043808370829,-0.00033560319570824504,-0.0022063031792640686,0.0003126999654341489,-8.849785081110895e-05,0.0007993336184881628,-0.000482853502035141,0.001384160597808659,0.001507848734036088
224,-0.0042561800219118595,-0.0003407868498470634,-0.0022060200572013855,0.0003125965013168752,-8.922588312998414e-05,0.000799519126303494,-0.0004825882788281888,0.0013846857473254204,0.001505341031588614
225,-0.004256387706845999,-0.00034272766788490117,-0.0022059320472180843,0.00031257656519301236,-9.006989421322942e-05,0.0007995034102350473,-0.00048262992640957236,0.0013850738760083914,0.0015039504505693913
226,-0.0042569017969071865,-0.00034558080369606614,-0.0022060004994273186,0.0003126169613096863,-9.054130350705236e-05,0.0007994038751348853,-0.0004826424701604992,0.0013855327852070332,0.0015027985209599137
227,-0.004256091080605984,-0.00034852061071433127,-0.0022064123768359423,0.0003127111995127052,-9.095113637158647e-05,0.0007993591134436429,-0.0004825783253181726,0.0013860861072316766,0.0015024392632767558
228,-0.004256249405443668,-0.0003504768246784806,-0.0022074037697166204,0.0003126738010905683,-9.103516640607268e-05,0.0007988829165697098,-0.00048249796964228153,0.001386889605782926,0.0015025942120701075
229,-0.004256412852555513,-0.00035052973544225097,-0.0022084901574999094,0.00031272487831301987,-9.122022311203182e-05,0.0007984953699633479,-0.0004827299271710217,0.0013877616729587317,0.0015018354170024395
230,-0.00425706384703517,-0.0003484011394903064,-0.0022090577986091375,0.00031275837682187557,-9.125441283686087e-05,0.0007979678339324892,-0.00048288004472851753,0.001388362841680646,0.0015007646288722754
231,-0.004257934167981148,-0.0003394514787942171,-0.0022095635067671537,0.00031318061519414186,-9.131889237323776e-05,0.0007971773156896234,-0.0004831789410673082,0.0013889262918382883,0.0015001544961705804
232,-0.00425921194255352,-0.00032927855500020087,-0.00220991438254714,0.0003133293066639453,-9.120773756876588e-05,0.000796583597548306,-0.00048312367289327085,0.0013894420117139816,0.0014989931369200349
233,-0.004259960725903511,-0.0003233132010791451,-0.002210321370512247,0.000313868309604004,-9.161453635897487e-05,0.0007961008814163506,-0.00048317533219233155,0.0013895976589992642,0.0014980508713051677
234,-0.004259823355823755,-0.0003165662637911737,-0.002211608225479722,0.0003144111833535135,-9.196794417221099e-05,0.0007956605404615402,-0.00048319637426175177,0.0013898778706789017,0.0014966463204473257
235,-0.004259584005922079,-0.000310994015308097,-0.0022128678392618895,0.00031490501714870334,-9.219681669492275e-05,0.0007953473250381649,-0.00048332224832847714,0.0013900275807827711,0.0014954103389754891
236,-0.00425941776484251,-0.000305173103697598,-0.0022140475921332836,0.00031538959592580795,-9.266067354474217e-05,0.0007950604776851833,-0.00048344090464524925,0.0013901760103181005,0.0014951883349567652
237,-0.004258275032043457,-0.00029669998912140727,-0.0022151912562549114,0.000315729936119169,-9.353018685942516e-05,0.0007944898097775877,-0.0004836776352021843,0.0013900776393711567,0.0014957851963117719
238,-0.004257120192050934,-0.00028719319379888475,-0.002216004068031907,0.0003160098858643323,-9.44590283324942e-05,0.0007939008646644652,-0.00048377615166828036,0.001389824552461505,0.0014965890441089869
239,-0.004256625194102526,-0.00027783348923549056,-0.0022166266571730375,0.0003163814835716039,-9.549909736961126e-05,0.0007933587767183781,-0.0004837336018681526,0.0013894042931497097,0.0014969807816669345
240,-0.004255909007042646,-0.0002686285588424653,-0.0022170930169522762,0.00031664984999224544,-9.610161214368418e-05,0.0007928481791168451,-0.00048385289846919477,0.001388569246046245,0.0014984812587499619
241,-0.004254412837326527,-0.0002574546087998897,-0.0022170485462993383,0.00031675666105002165,-9.64397331699729e-05,0.0007925279205664992,-0.0004841270565520972,0.0013878472382202744,0.0014998908154666424
242,-0.0042540631256997585,-0.00025300931883975863,-0.0022168459836393595,0.00031674784258939326,-9.62696794886142e-05,0.0007925620884634554,-0.0004842538619413972,0.0013873077696189284,0.0015009851194918156
243,-0.0042537497356534,-0.00025163913960568607,-0.002216712338849902,0.0003168016846757382,-9.611606947146356e-05,0.0007928073173388839,-0.0004844326467718929,0.0013867209199815989,0.0015013994416221976
244,-0.004253924824297428,-0.00025252459454350173,-0.002217013156041503,0.0003169520932715386,-9.577449964126572e-05,0.0007931444561108947,-0.0004846428637392819,0.0013861431507393718,0.0015017548575997353
245,-0.004254678729921579,-0.00025555965839885175,-0.002217215485870838,0.00031703602871857584,-9.534346463624388e-05,0.0007936286856420338,-0.0004847961536142975,0.0013855438446626067,0.0015013234224170446
246,-0.0042565553449094296,-0.00025698254466988146,-0.0022174110636115074,0.0003171030548401177,-9.489218791713938e-05,0.0007940486539155245,-0.0004850534023717046,0.001384815201163292,0.0015005575260147452
247,-0.004259629175066948,-0.0002590614021755755,-0.002217364963144064,0.0003172771248500794,-9.475943079451099e-05,0.0007946399273350835,-0.00048528940533287823,0.0013841807376593351,0.0014995081583037972
248,-0.004263114184141159,-0.00026273555704392493,-0.0022168660070747137,0.00031736379605717957,-9.426289761904627e-05,0.0007949814316816628,-0.00048575777327641845,0.0013836448779329658,0.0014980121050029993
249,-0.004265699535608292,-0.00026702816830947995,-0.0022163866087794304,0.00031747514731250703,-9.381079144077376e-05,0.000795002153608948,-0.00048616831190884113,0.0013833122793585062,0.0014968478353694081
250,-0.004267593380063772,-0.0002697861928027123,-0.002215717453509569,0.0003177262842655182,-9.319296077592298e-05,0.0007949353894218802,-0.00048655029968358576,0.0013830268289893866,0.001496701966971159
251,-0.004269210621714592,-0.0002719807089306414,-0.002214942593127489,0.0003179421473760158,-9.25975909922272e-05,0.0007948217098601162,-0.00048672835691832006,0.001382804592140019,0.0014959641266614199
252,-0.004270998761057854,-0.0002711455163080245,-0.00221410789526999,0.0003180518397130072,-9.20851671253331e-05,0.0007944083772599697,-0.00048687023809179664,0.0013823991175740957,0.001494627445936203
253,-0.004273113328963518,-0.0002685405779629946,-0.00221370835788548,0.00031819313880987465,-9.164575749309734e-05,0.0007939838105812669,-0.0004867766110692173,0.0013819779269397259,0.0014938218519091606
254,-0.004274783190339804,-0.0002655242569744587,-0.0022134522441774607,0.0003183803055435419,-9.137250162893906e-05,0.0007938574417494237,-0.0004866532108280808,0.0013813424156978726,0.0014926803996786475
255,-0.004275938030332327,-0.0002622533938847482,-0.002213303931057453,0.0003184571396559477,-9.094217966776341e-05,0.0007935703033581376,-0.0004865236987825483,0.0013809504453092813,0.0014912181068211794
256,-0.004277276340872049,-0.0002596960694063455,-0.0022128839045763016,0.00031858973670750856,-9.046313789440319e-05,0.0007930704741738737,-0.0004865307128056884,0.001380483852699399,0.0014899038942530751
257,-0.004278523847460747,-0.00025538328918628395,-0.002212837338447571,0.00031885012867860496,-9.037201380124316e-05,0.000792988867033273,-0.0004863706126343459,0.001379933673888445,0.0014890879392623901
258,-0.004279455170035362,-0.0002500712580513209,-0.002213026862591505,0.0003191739087924361,-9.057224087882787e-05,0.0007930417195893824,-0.0004862372879870236,0.0013794844271615148,0.0014882325194776058
259,-0.004280495457351208,-0.00024529118672944605,-0.0022129539866000414,0.00031954143196344376,-9.063546167453751e-05,0.0007928854902274907,-0.0004860791377723217,0.0013791737146675587,0.001487715751864016
260,-0.004280997905880213,-0.00024096114793792367,-0.0022127029951661825,0.0003199694328941405,-9.073352703126147e-05,0.0007927076076157391,-0.0004860332701355219,0.0013789492659270763,0.0014876492787152529
261,-0.004280540160834789,-0.00023743262863717973,-0.002212292281910777,0.0003207807894796133,-9.043307363754138e-05,0.0007926208199933171,-0.0004859880427829921,0.0013787831412628293,0.0014866336714476347
262,-0.004280302673578262,-0.00023350650735665113,-0.0022116433829069138,0.00032172040664590895,-9.044284524861723e-05,0.0007924710516817868,-0.0004860278859268874,0.0013789079384878278,0.001485598855651915
263,-0.0042794253677129745,-0.00023081302060745656,-0.002210777485743165,0.0003225415130145848,-9.029085777001455e-05,0.0007923988159745932,-0.0004860303597524762,0.001379067194648087,0.0014846462290734053
264,-0.004278325941413641,-0.000227275668294169,-0.002210091333836317,0.00032337434822693467,-9.003636660054326e-05,0.000792318896856159,-0.00048600780428387225,0.0013793271500617266,0.0014832454035058618
265,-0.004277532920241356,-0.0002253896527690813,-0.0022091642022132874,0.000324306107359007,-8.989689376903698e-05,0.0007923041703179479,-0.0004860672343056649,0.0013795549748465419,0.001481233979575336
266,-0.004277233500033617,-0.0002275711012771353,-0.002208365360274911,0.0003251520683988929,-8.960675040725619e-05,0.0007924107485450804,-0.00048635597340762615,0.001379827270284295,0.0014791926369071007
267,-0.004277421627193689,-0.0002323628286831081,-0.0022074205335229635,0.00032574127544648945,-8.980812708614394e-05,0.0007923700613901019,-0.00048662134213373065,0.0013801314635202289,0.0014778025215491652
268,-0.004276665858924389,-0.0002390341687714681,-0.0022062198258936405,0.00032633350929245353,-8.998474368127063e-05,0.0007921925280243158,-0.0004866367962677032,0.0013806495117023587,0.0014773969305679202
269,-0.004275859799236059,-0.00024293457681778818,-0.0022053245920687914,0.00032710761297494173,-9.014865645440295e-05,0.0007923396769911051,-0.0004866152594331652,0.0013811819953843951,0.0014773018192499876
270,-0.004276297986507416,-0.00024397381639573723,-0.0022042763885110617,0.00032752653351053596,-9.023046732181683e-05,0.0007924780366010964,-0.0004866657836828381,0.001381732989102602,0.0014783097431063652
271,-0.004275613464415073,-0.00024612905690446496,-0.0022029955871403217,0.00032800494227558374,-9.014120587380603e-05,0.0007925404352135956,-0.00048681144835427403,0.0013821512693539262,0.0014791623689234257
272,-0.004273722879588604,-0.00024902698351070285,-0.002201877534389496,0.0003284485428594053,-9.01697640074417e-05,0.0007925558602437377,-0.0004869092081207782,0.0013822839828208089,0.00148093537427485
273,-0.00427245395258069,-0.0002500417176634073,-0.0022011944092810154,0.00032881178776733577,-9.00181257748045e-05,0.0007923688390292227,-0.0004869022232014686,0.0013825776986777782,0.0014830881264060736
274,-0.004271044861525297,-0.0002502836287021637,-0.0022010360844433308,0.00032912357710301876,-8.969101327238604e-05,0.0007925432291813195,-0.00048689424875192344,0.001382754766382277,0.0014852090971544385
275,-0.0042689498513937,-0.0002553385274950415,-0.0022010947577655315,0.0003293531481176615,-8.940849511418492e-05,0.0007926410180516541,-0.00048705548397265375,0.0013830200769007206,0.0014865550911054015
276,-0.004266854841262102,-0.0002565895556472242,-0.0022013713605701923,0.0003295176138635725,-8.935566438594833e-05,0.0007927831611596048,-0.00048707076348364353,0.001383304363116622,0.001488401205278933
277,-0.004264968913048506,-0.00025666668079793453,-0.0022015422582626343,0.0003297505609225482,-8.928772149374709e-05,0.0007926053949631751,-0.0004872585413977504,0.0013835037825629115,0.001491129631176591
278,-0.004263289738446474,-0.0002521565183997154,-0.0022018991876393557,0.0003301695396658033,-8.938756218412891e-05,0.0007923818775452673,-0.0004873713478446007,0.0013836128637194633,0.0014937019441276789
279,-0.0042622508481144905,-0.0002475393994245678,-0.0022030314430594444,0.00033069151686504483,-9.012763621285558e-05,0.0007926046964712441,-0.00048745592357590795,0.0013839241582900286,0.0014955847291275859
280,-0.0042608086951076984,-0.00024439592380076647,-0.002203939016908407,0.00033113922108896077,-9.057349961949512e-05,0.000793063489254564,-0.00048732818686403334,0.0013842325424775481,0.0014979459811002016
281,-0.004258730448782444,-0.00024206801026593894,-0.002204219112172723,0.0003315618960186839,-9.094003326026723e-05,0.000793344690464437,-0.00048720871564000845,0.0013845199719071388,0.0014994917437434196
282,-0.004256278742104769,-0.00024096333072520792,-0.0022047364618629217,0.00033177260775119066,-9.117137233261019e-05,0.0007935051107779145,-0.0004870793200097978,0.001384773408062756,0.001500871148891747
283,-0.00425438629463315,-0.00024285860126838088,-0.0022053318098187447,0.00033174193231388927,-9.113986743614078e-05,0.0007936867768876255,-0.0004869678523391485,0.001384860253892839,0.0015016631223261356
284,-0.004253838211297989,-0.0002441827964503318,-0.002205368597060442,0.00033123278990387917,-9.098943701246753e-05,0.0007939021452330053,-0.00048691770643927157,0.001384750590659678,0.0015024926979094744
285,-0.00425427220761776,-0.00024750223383307457,-0.0022050803527235985,0.0003307295555714518,-9.090935782296583e-05,0.0007943240343593061,-0.0004870048724114895,0.0013848113594576716,0.0015036858385428786
286,-0.004255677107721567,-0.00024841108825057745,-0.00220564310438931,0.00033014072687365115,-9.106232755584642e-05,0.0007949841092340648,-0.00048722149222157896,0.0013848276576027274,0.001503951963968575
287,-0.0042562359012663364,-0.0002502121787983924,-0.002205237280577421,0.00032976423972286284,-9.121419134316966e-05,0.0007957858615554869,-0.0004873884026892483,0.0013848226517438889,0.0015046043554320931
288,-0.0042561013251543045,-0.0002548110787756741,-0.002204552059993148,0.00032979194656945765,-9.144842624664307e-05,0.0007965835393406451,-0.0004876710590906441,0.00138482463080436,0.0015050357906147838
289,-0.0042559257708489895,-0.00025889184325933456,-0.00220332364551723,0.00033005219302140176,-9.187747491523623e-05,0.0007970657898113132,-0.000487963086925447,0.0013846867950633168,0.0015050144866108894
290,-0.0042548999190330505,-0.00026224242174066603,-0.002202538773417473,0.0003299684321973473,-9.217602928401902e-05,0.0007969320868141949,-0.0004881034546997398,0.0013846043730154634,0.0015048159984871745
291,-0.004254153463989496,-0.0002651155518833548,-0.002201022347435355,0.0003301546676084399,-9.275731281377375e-05,0.0007965568802319467,-0.0004884477821178734,0.0013843636261299253,0.0015053643146529794
292,-0.004254281520843506,-0.000269490759819746,-0.0021999082528054714,0.00033052280195988715,-9.352571942145005e-05,0.0007960833609104156,-0.0004886897513642907,0.0013840512838214636,0.001505268388427794
293,-0.004255059640854597,-0.0002710586413741112,-0.002198160858824849,0.00033122277818620205,-9.44196799537167e-05,0.0007955515757203102,-0.00048876489745453,0.001383865950629115,0.0015042904997244477
294,-0.004255705513060093,-0.00027170951943844557,-0.0021969745866954327,0.00033182743936777115,-9.53451162786223e-05,0.0007946771802380681,-0.0004887364339083433,0.001383702619932592,0.0015034348471090198
295,-0.004256571177393198,-0.00027732428861781955,-0.002195398323237896,0.0003321644908282906,-9.62221747613512e-05,0.000794169376604259,-0.0004886302049271762,0.0013834956334903836,0.0015030300710350275
296,-0.004258602391928434,-0.0002801621740218252,-0.00219407444819808,0.00033284761593677104,-9.714755287859589e-05,0.000793912447988987,-0.0004884587833657861,0.001383299008011818,0.0015023504383862019
297,-0.00426000589504838,-0.00028115016175433993,-0.002192660002037883,0.0003334374923724681,-9.809815674088895e-05,0.0007940985960885882,-0.0004884024965576828,0.0013830269454047084,0.0015020178398117423
298,-0.0042607905343174934,-0.0002793024177663028,-0.002191702602431178,0.00033405821886844933,-9.880246943794191e-05,0.000794325431343168,-0.0004883896326646209,0.001382695510983467,0.001501036575064063
299,-0.004261562135070562,-0.00027331372257322073,-0.0021908439230173826,0.00033457341487519443,-9.936654532793909e-05,0.0007942867232486606,-0.00048845011042431,0.0013824217021465302,0.0015003761509433389
300,-0.00426234258338809,-0.0002604140609037131,-0.0021904949098825455,0.0003355000517331064,-9.991909610107541e-05,0.0007944596000015736,-0.0004884481895714998,0.001382141374051571,0.0014990461058914661
301,-0.00426331115886569,-0.0002492362982593477,-0.002190203173086047,0.00033627086668275297,-0.00010037200263468549,0.0007945769466459751,-0.000488466932438314,0.001382011454552412,0.0014978862600401044
302,-0.004263459704816341,-0.000240311972447671,-0.0021893628872931004,0.00033660882036201656,-0.0001008002509479411,0.000794301216956228,-0.0004883348592557013,0.0013818027218803763,0.0014969612238928676
303,-0.004263994749635458,-0.00023523041454609483,-0.002188277430832386,0.00033687942777760327,-0.00010112807649420574,0.0007938297349028289,-0.00048822443932294846,0.00138154870364815,0.0014963540015742183
304,-0.0042639183811843395,-0.00023125685402192175,-0.0021874653175473213,0.00033724342938512564,-0.00010138317156815901,0.0007933821179904044,-0.0004881693748757243,0.0013812151737511158,0.001495271921157837
305,-0.004263970069587231,-0.00022700165573041886,-0.0021866029128432274,0.00033762972452677786,-0.00010171135363634676,0.0007933350862003863,-0.00048810490989126265,0.0013808318180963397,0.0014944577123969793
306,-0.004264916758984327,-0.00022391891980078071,-0.0021857861429452896,0.0003381658170837909,-0.00010199622920481488,0.0007931003929115832,-0.0004879651532974094,0.0013804396148771048,0.0014941362896934152
307,-0.00426518777385354,-0.00022193306358531117,-0.0021847523748874664,0.0003385462041478604,-0.00010239361290587112,0.0007928882841952145,-0.00048798133502714336,0.0013799751177430153,0.0014938188251107931
308,-0.004265233874320984,-0.00022053823340684175,-0.0021841605193912983,0.0003389829653315246,-0.00010288685734849423,0.0007927872939035296,-0.00048802513629198074,0.0013793817488476634,0.0014924982096999884
309,-0.004264902323484421,-0.00021684137755073607,-0.002183744451031089,0.00033915965468622744,-0.00010326862684451044,0.0007925849640741944,-0.0004880319465883076,0.001379026914946735,0.0014907763106748462
310,-0.00426468113437295,-0.00021107489010319114,-0.002184078563004732,0.00033917478867806494,-0.00010348510841140524,0.0007924579549580812,-0.00048788453568704426,0.0013788690557703376,0.0014892753679305315
311,-0.00426404969766736,-0.000212263417779468,-0.002183628734201193,0.0003390626807231456,-0.00010351974924560636,0.0007925555692054331,-0.0004875805170740932,0.0013787541538476944,0.0014874828048050404
312,-0.004264521412551403,-0.00021595395810436457,-0.0021834680810570717,0.0003388047916814685,-0.00010375314741395414,0.0007925890386104584,-0.00048735292511992157,0.001378611195832491,0.0014859965303912759
313,-0.004264837130904198,-0.00022168297437019646,-0.0021835651714354753,0.0003383543516974896,-0.00010379623563494533,0.0007926695980131626,-0.00048703019274398685,0.001378702581860125,0.0014850528677925467
314,-0.00426499592140317,-0.00022619322407990694,-0.002183317206799984,0.00033756025368347764,-0.0001037984766298905,0.0007925683748908341,-0.0004867109237238765,0.0013788683572784066,0.0014839106006547809
315,-0.004266088828444481,-0.0002356313489144668,-0.002182855037972331,0.0003368824836798012,-0.0001037103429553099,0.0007925445097498596,-0.00048633822007104754,0.0013794801197946072,0.001483432250097394
316,-0.004267830867320299,-0.00024919575662352145,-0.0021820333786308765,0.0003360444388817996,-0.00010387677320977673,0.0007924757082946599,-0.00048605285701341927,0.0013800797751173377,0.0014831307344138622
317,-0.004269372671842575,-0.0002628942020237446,-0.002181430347263813,0.0003352802596054971,-0.0001040639981511049,0.000792622216977179,-0.0004860247136093676,0.0013804507907480001,0.001483038067817688
318,-0.004271444398909807,-0.0002731619169935584,-0.002181546064093709,0.00033449771581217647,-0.00010407460649730638,0.0007929338025860488,-0.00048603047616779804,0.0013808906078338623,0.0014827681006863713
319,-0.004273713566362858,-0.0002789319842122495,-0.002181896474212408,0.0003341685514897108,-0.00010439231846248731,0.0007928377017378807,-0.0004861427005380392,0.0013812268152832985,0.0014821960357949138
320,-0.004275786690413952,-0.00028087006649002433,-0.002182681579142809,0.0003342295531183481,-0.00010445898806210607,0.0007928563863970339,-0.00048611575039103627,0.0013817569706588984,0.0014818328199908137
321,-0.004278011154383421,-0.0002804144751280546,-0.0021830310579389334,0.00033449489274062216,-0.00010459057375555858,0.0007927854894660413,-0.000486132426885888,0.0013824126217514277,0.0014819977805018425
322,-0.004280081018805504,-0.00027239054907113314,-0.0021839237306267023,0.0003346936427988112,-0.00010498354095034301,0.0007927476544864476,-0.0004862876085098833,0.0013827929506078362,0.001481645624153316
323,-0.0042820461094379425,-0.0002642775943968445,-0.0021840923000127077,0.00033451567287556827,-0.0001051544095389545,0.0007928177365101874,-0.00048650443204678595,0.001383197377435863,0.0014809159329161048
324,-0.004283260554075241,-0.000257094856351614,-0.0021843521390110254,0.0003342819691170007,-0.00010519201896386221,0.0007931024883873761,-0.000486919772811234,0.0013838056474924088,0.0014804585371166468
325,-0.004282402340322733,-0.00024491906515322626,-0.0021853772923350334,0.00033350306330248713,-0.00010494443995412439,0.0007937570917420089,-0.0004872370627708733,0.001384278293699026,0.0014804161619395018
326,-0.004279320128262043,-0.00023189568310044706,-0.002186102094128728,0.0003331152256578207,-0.00010485418169992045,0.0007941234507597983,-0.0004877184401266277,0.0013845820212736726,0.0014804864767938852
327,-0.004275214858353138,-0.00022175665071699768,-0.0021869675256311893,0.00033323021489195526,-0.00010468380060046911,0.0007943575619719923,-0.00048817959032021463,0.0013849332462996244,0.0014809051062911749
328,-0.004271260928362608,-0.00022309369524009526,-0.0021870748605579138,0.00033380481181666255,-0.00010423351341160014,0.0007942348020151258,-0.0004884360823780298,0.0013855088036507368,0.0014818338677287102
329,-0.00426780479028821,-0.00022703513968735933,-0.0021867358591407537,0.00033442152198404074,-0.00010392483090981841,0.0007938172202557325,-0.0004886190872639418,0.0013860486214980483,0.0014823877718299627
330,-0.004265084862709045,-0.00023020246590021998,-0.0021867332980036736,0.00033494975650683045,-0.00010359939915360883,0.0007934675668366253,-0.0004887819522991776,0.001386413350701332,0.0014834525063633919
331,-0.004263042472302914,-0.00022994879691395909,-0.002186645520851016,0.000335399730829522,-0.00010319682041881606,0.0007930943393148482,-0.0004888813127763569,0.0013866552617400885,0.0014842369128018618
332,-0.004259907174855471,-0.0002300846390426159,-0.0021869130432605743,0.0003355864610057324,-0.0001030200655804947,0.0007923447410576046,-0.0004889347474090755,0.001386656309477985,0.0014845321420580149
333,-0.004256239626556635,-0.0002334781311219558,-0.0021874005906283855,0.00033609961974434555,-0.00010286056931363419,0.0007917947950772941,-0.000488877878524363,0.0013867183588445187,0.0014845170080661774
334,-0.004253031220287085,-0.00023540201073046774,-0.0021881398279219866,0.00033641792833805084,-0.00010236125672236085,0.0007909027044661343,-0.0004886136739514768,0.0013868790119886398,0.0014850468141958117
335,-0.004250980913639069,-0.0002383276296313852,-0.0021887836046516895,0.0003370659542270005,-0.00010159998782910407,0.0007903617806732655,-0.0004884108202531934,0.0013870400143787265,0.001485208747908473
336,-0.004250325262546539,-0.0002413050242466852,-0.0021895156241953373,0.0003376239037606865,-0.00010064556408906356,0.0007904215599410236,-0.0004879766493104398,0.0013872855342924595,0.0014849744038656354
337,-0.004249886609613895,-0.00023733089619781822,-0.0021906178444623947,0.00033849698957055807,-9.965268691303208e-05,0.0007904797676019371,-0.0004875962040387094,0.0013873929856345057,0.0014846444828435779
338,-0.004249840509146452,-0.00023306754883378744,-0.002191434381529689,0.0003389541816432029,-9.872764348983765e-05,0.0007906233076937497,-0.0004872704448644072,0.0013875019503757358,0.0014835302717983723
339,-0.004248752724379301,-0.00023172245710156858,-0.002191853942349553,0.0003392942307982594,-9.776829392649233e-05,0.0007906946702860296,-0.0004869892436545342,0.00138726900331676,0.0014824961544945836
340,-0.004247625824064016,-0.0002277096500620246,-0.002192022744566202,0.0003397810214664787,-9.695252811070532e-05,0.0007908174302428961,-0.00048687873641029,0.0013869653921574354,0.0014818101190030575
341,-0.004246935714036226,-0.00022856378927826881,-0.002192295389249921,0.00034012331161648035,-9.63564234552905e-05,0.0007907504914328456,-0.0004867088864557445,0.0013867061352357268,0.0014802011428400874
342,-0.004246539901942015,-0.00023098953533917665,-0.0021924476604908705,0.0003404389717616141,-9.568869427312165e-05,0.0007905214442871511,-0.0004865391820203513,0.0013864984503015876,0.0014794101007282734
343,-0.004246504511684179,-0.00023175615933723748,-0.0021923647727817297,0.0003408050106372684,-9.507077629677951e-05,0.0007905176607891917,-0.0004864597285632044,0.0013860486214980483,0.0014787755208089948
344,-0.004246317315846682,-0.00023932635667733848,-0.0021920392755419016,0.00034089299151673913,-9.468354255659506e-05,0.0007903662044554949,-0.0004864774236921221,0.0013857489684596658,0.0014787595719099045
345,-0.004245998803526163,-0.0002497024543117732,-0.0021919580176472664,0.00034057526499964297,-9.464117465540767e-05,0.0007903295336291194,-0.00048663310008123517,0.001385392271913588,0.0014798141783103347
346,-0.004245938267558813,-0.0002600883017294109,-0.002192240208387375,0.00034036097349599004,-9.469943324802443e-05,0.0007903464720584452,-0.00048696069279685616,0.0013852413976565003,0.0014810692518949509
347,-0.004247699398547411,-0.00026973753119818866,-0.0021926516201347113,0.0003400116693228483,-9.479013533564284e-05,0.0007903893128968775,-0.00048710519331507385,0.0013851034455001354,0.0014822983648627996
348,-0.004250023979693651,-0.0002807999844662845,-0.002192551037296653,0.00033985916525125504,-9.499788575340062e-05,0.0007904894300736487,-0.0004870682314503938,0.0013851964613422751,0.0014825724065303802
349,-0.004251944832503796,-0.0002909007598645985,-0.002192070474848151,0.0003390031633898616,-9.52389818849042e-05,0.0007905770908109844,-0.00048701209016144276,0.0013849568786099553,0.0014830830041319132
350,-0.00425321189686656,-0.00029375869780778885,-0.0021919726859778166,0.000338287150952965,-9.60007164394483e-05,0.0007906263926997781,-0.0004869929689448327,0.001384806353598833,0.0014824761310592294
351,-0.004253762774169445,-0.0002884809800889343,-0.002192352432757616,0.0003377866232767701,-9.657924965722486e-05,0.0007909640553407371,-0.0004869640397373587,0.0013846405781805515,0.0014820513315498829
352,-0.004254028666764498,-0.0002835620834957808,-0.0021924711763858795,0.0003373722138348967,-9.709438745630905e-05,0.0007916415925137699,-0.0004870147677138448,0.0013846888905391097,0.0014822434168308973
353,-0.004254407715052366,-0.0002812666934914887,-0.0021924786269664764,0.0003369961923453957,-9.767104347702116e-05,0.0007923333323560655,-0.0004871180863119662,0.0013846199726685882,0.0014820193173363805
354,-0.004254090134054422,-0.00027609869721345603,-0.0021923803724348545,0.00033682878711260855,-9.803772263694555e-05,0.0007928186096251011,-0.000487287063151598,0.001384430332109332,0.0014807680854573846
355,-0.00425361143425107,-0.00027403669082559645,-0.0021920509170740843,0.0003367662720847875,-9.834943921305239e-05,0.0007931944564916193,-0.00048747542314231396,0.0013843596680089831,0.0014794761082157493
356,-0.004253174643963575,-0.0002749083796516061,-0.002191887702792883,0.0003366940363775939,-9.897042764350772e-05,0.0007934109307825565,-0.00048775048344396055,0.0013844356872141361,0.0014783767983317375
357,-0.004252934362739325,-0.00027716014301404357,-0.0021915817633271217,0.0003366913879290223,-9.93780413409695e-05,0.000793744286056608,-0.00048790720757097006,0.0013845567591488361,0.001477536978200078
358,-0.004252264276146889,-0.00027668807888403535,-0.002190580125898123,0.0003369593759998679,-9.96106828097254e-05,0.000793868734035641,-0.00048795793554745615,0.0013843532651662827,0.0014759560581296682
359,-0.004251348320394754,-0.0002761920331977308,-0.0021894904784858227,0.00033701135544106364,-9.987410885514691e-05,0.0007937746122479439,-0.00048807691200636327,0.0013842742191627622,0.0014743137871846557
360,-0.004248930606991053,-0.0002768262638710439,-0.0021884210873395205,0.0003371952916495502,-9.997878805734217e-05,0.0007935154135338962,-0.00048812993918545544,0.0013838971499353647,0.0014727646484971046
361,-0.004247486591339111,-0.0002743082877714187,-0.0021877021063119173,0.00033767620334401727,-0.00010011157428380102,0.0007932463195174932,-0.00048822187818586826,0.0013835179852321744,0.0014707759255543351
362,-0.004245497286319733,-0.0002761110954452306,-0.002186883008107543,0.0003378056571818888,-0.00010005335207097232,0.0007931669824756682,-0.0004881469067186117,0.001383263268508017,0.0014693544944748282
363,-0.004243792034685612,-0.0002753923472482711,-0.0021859444677829742,0.0003383306320756674,-9.997951565310359e-05,0.0007933825254440308,-0.0004882945213466883,0.0013828621013090014,0.0014683798654004931
364,-0.0042430986650288105,-0.0002730368869379163,-0.0021853058133274317,0.00033856480149552226,-9.999138273997232e-05,0.0007936105248518288,-0.0004884395166300237,0.0013825279893353581,0.0014669571537524462
365,-0.0042443047277629375,-0.0002710525004658848,-0.0021850301418453455,0.0003386828175280243,-0.00010005521471612155,0.0007939361385069788,-0.0004886667593382299,0.0013822066830471158,0.0014670377131551504
366,-0.0042460705153644085,-0.0002642428735271096,-0.002184865530580282,0.0003390442579984665,-0.00010022609785664827,0.0007943827658891678,-0.0004890081472694874,0.0013819148298352957,0.0014662939356639981
367,-0.004247590899467468,-0.000260942499153316,-0.002184789627790451,0.0003390737983863801,-0.0001003656507236883,0.0007953390595503151,-0.0004893841105513275,0.001381595153361559,0.0014660119777545333
368,-0.004248812794685364,-0.00025996050680987537,-0.0021848385222256184,0.00033883738797158003,-0.00010029286931967363,0.0007959427312016487,-0.000489862053655088,0.0013813823461532593,0.001466303481720388
369,-0.004249630030244589,-0.0002563866728451103,-0.002184719778597355,0.00033865953446365893,-0.00010025960364146158,0.0007965350523591042,-0.0004900962812826037,0.001381254056468606,0.0014663971960544586
370,-0.004250476136803627,-0.0002546023461036384,-0.0021844387520104647,0.00033894728403538465,-0.00010021882189903408,0.0007971013546921313,-0.0004902038490399718,0.0013810974778607488,0.001465852023102343
371,-0.004252963233739138,-0.00025722128339111805,-0.002184104872867465,0.0003391331119928509,-0.00010024241782957688,0.000797501765191555,-0.0004902408691123128,0.0013808802468702197,0.0014653336256742477
372,-0.004255164414644241,-0.0002659424499142915,-0.0021842236164957285,0.00033947551855817437,-0.00010027593089034781,0.0007978608482517302,-0.0004903166554868221,0.0013806780334562063,0.0014646884519606829
373,-0.004258335568010807,-0.0002775450993794948,-0.002183483447879553,0.00033997505670413375,-0.00010012455459218472,0.0007978728390298784,-0.0004905420355498791,0.001380604924634099,0.0014643199974671006
374,-0.004261063877493143,-0.0002882498374674469,-0.0021833786740899086,0.00034048501402139664,-9.974794375011697e-05,0.0007981062517501414,-0.0004904978559352458,0.0013806656934320927,0.001463686814531684
375,-0.004262894857674837,-0.0002953610382974148,-0.0021829952020198107,0.0003409464261494577,-9.987664816435426e-05,0.0007983004907146096,-0.0004902823129668832,0.0013804525369778275,0.0014629007782787085
376,-0.004263985902070999,-0.00030298615456558764,-0.002183050150051713,0.00034141752985306084,-0.00010019008914241567,0.0007985425763763487,-0.0004899013438262045,0.0013805957278236747,0.0014621525770053267
377,-0.004264395218342543,-0.0003131232224404812,-0.0021830482874065638,0.00034172559389844537,-0.00010043258225778118,0.0007986752316355705,-0.0004896267200820148,0.0013808731455355883,0.0014611545484513044
378,-0.004265029449015856,-0.0003226177941542119,-0.0021837844979017973,0.0003419643617235124,-0.0001008652470773086,0.0007989261648617685,-0.0004894596058875322,0.0013812548713758588,0.0014603500021621585
379,-0.004264995455741882,-0.00032585940789431334,-0.00218458054587245,0.00034231686731800437,-0.00010109000868396834,0.0007994476472958922,-0.0004892501747235656,0.00138170609716326,0.001459418679587543
380,-0.004264721646904945,-0.0003275112248957157,-0.0021852757781744003,0.00034257781226187944,-0.00010111679875990376,0.000799757253844291,-0.00048905482981354,0.0013822080800309777,0.0014584925957024097
381,-0.004264069255441427,-0.0003310177708044648,-0.0021859812550246716,0.0003429984499234706,-0.0001014488807413727,0.0007998922956176102,-0.0004888345720246434,0.0013825994683429599,0.001457426231354475
382,-0.0042631118558347225,-0.00033088758937083185,-0.0021866303868591785,0.0003433489764574915,-0.00010189268505200744,0.0008000030647963285,-0.0004884960944764316,0.0013829381205141544,0.0014568670885637403
383,-0.004261353053152561,-0.0003298550145700574,-0.002187318867072463,0.00034360907739028335,-0.00010239208495477214,0.0007998285000212491,-0.0004883076180703938,0.0013832399854436517,0.0014562890864908695
384,-0.004260039422661066,-0.0003263191320002079,-0.0021876448299735785,0.00034391082590445876,-0.0001025351375574246,0.0007997547509148717,-0.00048815272748470306,0.0013836423167958856,0.0014553250512108207
385,-0.004258229862898588,-0.00032416469184681773,-0.0021875696256756783,0.0003443438035901636,-0.00010279008711222559,0.000799492874648422,-0.00048786328989081085,0.0013838419690728188,0.001454650890082121
386,-0.00425713462755084,-0.00032001343788579106,-0.0021875230595469475,0.0003446997725404799,-0.00010328764619771391,0.0007996733183972538,-0.00048764265375211835,0.0013838366139680147,0.0014540544943884015
387,-0.0042557488195598125,-0.00031707106973044574,-0.002187854377552867,0.0003453821991570294,-0.00010392190597485751,0.0007996337371878326,-0.00048740324564278126,0.001383794704452157,0.0014535509981215
388,-0.004255009349435568,-0.00031581890652887523,-0.0021877698600292206,0.00034617629717104137,-0.00010428128734929487,0.0007993116741999984,-0.0004871529235970229,0.0013837398728355765,0.0014537425013259053
389,-0.004255193751305342,-0.0003166240931022912,-0.002187608741223812,0.0003469653020147234,-0.00010465674131410196,0.0007989550940692425,-0.0004869405529461801,0.0013837518636137247,0.0014544522855430841
390,-0.004255348816514015,-0.0003215832693967968,-0.0021872720681130886,0.0003479679289739579,-0.00010497002222109586,0.0007984524709172547,-0.00048667710507288575,0.0013838571030646563,0.0014560478739440441
391,-0.004255773965269327,-0.0003210519498679787,-0.0021867528557777405,0.00034883126500062644,-0.00010502201621420681,0.0007981031085364521,-0.0004867511452175677,0.0013841477921232581,0.0014574042288586497
392,-0.004256037063896656,-0.0003233075840398669,-0.0021863726433366537,0.0003498697769828141,-0.00010511447908356786,0.0007981782546266913,-0.0004869331605732441,0.0013841688632965088,0.0014579216949641705
393,-0.004256089683622122,-0.00031425742781721056,-0.0021867151372134686,0.00035090348683297634,-0.00010532889427850023,0.0007980379741638899,-0.00048715531011112034,0.0013842943590134382,0.0014580696588382125
394,-0.004257395397871733,-0.00030089690699242055,-0.0021872282959520817,0.0003517555305734277,-0.0001054085441865027,0.0007976431515999138,-0.0004873752477578819,0.0013841998297721148,0.0014588928315788507
395,-0.004258033353835344,-0.00028921058401465416,-0.0021879838313907385,0.0003522627230267972,-0.00010565906268311664,0.000797203800175339,-0.0004875198646914214,0.0013842686312273145,0.001459658145904541
396,-0.004257369786500931,-0.0002791077131405473,-0.0021889719646424055,0.00035263600875623524,-0.00010595786443445832,0.0007970241131260991,-0.00048776008770801127,0.0013843344058841467,0.001460345694795251
397,-0.0042560710571706295,-0.000269506563199684,-0.002190536353737116,0.0003531154652591795,-0.000106464431155473,0.0007969099096953869,-0.0004880717897322029,0.0013845956418663263,0.0014608858618885279
398,-0.004255527630448341,-0.00026100597460754216,-0.0021921582520008087,0.00035359273897483945,-0.00010722049046307802,0.0007965016993694007,-0.0004883891087956727,0.0013848778326064348,0.0014613684033975005
399,-0.0042551374062895775,-0.0002572056255303323,-0.002193405758589506,0.00035371683770790696,-0.00010774536349344999,0.0007960301591083407,-0.0004886548849754035,0.001385031151585281,0.001462560729123652
400,-0.004254941828548908,-0.0002574075770098716,-0.0021944211330264807,0.0003535215219017118,-0.00010840243339771405,0.0007957732304930687,-0.0004888579132966697,0.0013850993709638715,0.0014637152198702097
401,-0.0042554154060781,-0.0002582249871920794,-0.0021952015813440084,0.00035332399420440197,-0.00010883435606956482,0.0007955709006637335,-0.0004890166455879807,0.0013851949479430914,0.0014639305882155895
402,-0.004255959764122963,-0.00026339705800637603,-0.0021960833109915257,0.0003534755087457597,-0.00010934727470157668,0.0007946965633891523,-0.0004891331773251295,0.0013852178817614913,0.0014643502654507756
403,-0.004256474319845438,-0.0002734090085141361,-0.0021966334898024797,0.00035337527515366673,-0.00011005087435478345,0.0007940224604681134,-0.0004890859127044678,0.0013851756229996681,0.0014653723919764161
404,-0.004256227053701878,-0.0002846332499757409,-0.0021967319771647453,0.0003531960828695446,-0.00011106336023658514,0.0007935300818644464,-0.000488906167447567,0.0013851211406290531,0.0014662480680271983
405,-0.004255170002579689,-0.0002944225270766765,-0.00219729938544333,0.000353087205439806,-0.00011208227806491777,0.0007933233282528818,-0.0004887976683676243,0.0013853241689503193,0.0014672878896817565
406,-0.004254314117133617,-0.00030637995223514736,-0.0021974192932248116,0.00035298269358463585,-0.00011276162695139647,0.0007931037689559162,-0.0004885478992946446,0.001385321607813239,0.0014682018663734198
407,-0.004254640080034733,-0.0003218641795683652,-0.0021972921676933765,0.00035322055919095874,-0.00011335423187119886,0.0007926737307570875,-0.0004883040091954172,0.0013853576965630054,0.001468896516598761
408,-0.004254261497408152,-0.0003332375781610608,-0.002197352470830083,0.0003534649731591344,-0.00011392370652174577,0.0007923621451482177,-0.0004880559863522649,0.0013853745767846704,0.0014693859266117215
409,-0.004254327621310949,-0.00034254821366630495,-0.0021975007839500904,0.00035370871773920953,-0.00011460750829428434,0.0007922161021269858,-0.00048766378313302994,0.001385651994496584,0.0014696503058075905
410,-0.004253217484802008,-0.000349227775586769,-0.0021975766867399216,0.0003536990552674979,-0.00011501494736876339,0.0007921245996840298,-0.0004873301077168435,0.0013858951861038804,0.0014708032831549644
411,-0.00425149779766798,-0.00035517613287083805,-0.002197789493948221,0.00035360048059374094,-0.00011550874478416517,0.0007921724463813007,-0.0004871206474490464,0.0013860042672604322,0.0014715185388922691
412,-0.00424995506182313,-0.0003589899279177189,-0.0021981599275022745,0.00035334398853592575,-0.00011591826478252187,0.0007920966600067914,-0.0004868420655839145,0.0013859340688213706,0.001472417381592095
413,-0.004247667733579874,-0.0003597958420868963,-0.0021988307125866413,0.00035283464239910245,-0.00011636100680334494,0.0007923837983980775,-0.00048670207615941763,0.0013857298763468862,0.0014727519592270255
414,-0.0042454893700778484,-0.0003570257395040244,-0.0021999299060553312,0.000352513074176386,-0.00011669343803077936,0.0007925317040644586,-0.0004866490780841559,0.0013857175363227725,0.0014737440505996346
415,-0.004243491683155298,-0.0003548836102709174,-0.0022008847445249557,0.0003523979976307601,-0.00011711714614648372,0.0007926571415737271,-0.0004866620583925396,0.0013857614248991013,0.0014744980726391077
416,-0.004241868853569031,-0.0003508581139612943,-0.0022019995376467705,0.00035226100590080023,-0.00011748018732760102,0.0007928494014777243,-0.0004866724193561822,0.0013859054306522012,0.0014753710711374879
417,-0.0042404658161103725,-0.00034905533539131284,-0.0022029310930520296,0.00035236726398579776,-0.00011798058403655887,0.0007931181462481618,-0.00048639834858477116,0.0013860376784577966,0.0014751401031389832
418,-0.004239629954099655,-0.0003472554381005466,-0.0022041432093828917,0.00035242101876065135,-0.00011831527081085369,0.0007933363085612655,-0.00048613265971653163,0.001386339426971972,0.0014750468544661999
419,-0.004238692112267017,-0.000342824641847983,-0.002205059863626957,0.0003524575149640441,-0.00011883166735060513,0.0007934580789878964,-0.00048585550393909216,0.0013866191729903221,0.001474765595048666
420,-0.004237443674355745,-0.0003389884950593114,-0.0022057746537029743,0.00035257835406810045,-0.00011933651694562286,0.0007936127949506044,-0.0004856372543144971,0.0013867984525859356,0.001474741380661726
421,-0.004236722830682993,-0.00033848179737105966,-0.0022066771052777767,0.00035271362867206335,-0.00011974049994023517,0.0007939485367387533,-0.0004853085265494883,0.001386946183629334,0.001474107732065022
422,-0.004236072767525911,-0.00033944545430131257,-0.002207432873547077,0.0003529326932039112,-0.00011994054511887953,0.0007940123905427754,-0.0004850532568525523,0.001386874122545123,0.0014735345030203462
423,-0.004236598964780569,-0.00034102171775884926,-0.002208079444244504,0.0003533395938575268,-0.00012017835979349911,0.0007941422518342733,-0.0004847185336984694,0.0013866641093045473,0.0014732694253325462
424,-0.0042361305095255375,-0.0003421091823838651,-0.002208363963291049,0.0003535536816343665,-0.00012029579374939203,0.0007942006341181695,-0.0004842743801418692,0.0013863707426935434,0.001472943346016109
425,-0.004235683940351009,-0.0003426924522500485,-0.0022085411474108696,0.0003536591539159417,-0.00012048131611663848,0.0007940726354718208,-0.00048390156007371843,0.0013862272026017308,0.0014729321701452136
426,-0.004234572872519493,-0.00034716754453256726,-0.0022086631506681442,0.0003535354626365006,-0.00012070256343577057,0.0007937230984680355,-0.0004836037114728242,0.0013862410560250282,0.0014727795496582985
427,-0.004232808947563171,-0.00035648568882606924,-0.002208196558058262,0.0003534845891408622,-0.00012083883484592661,0.0007932906155474484,-0.00048342731315642595,0.0013859295286238194,0.0014730303082615137
428,-0.004230591468513012,-0.00036337683559395373,-0.0022076223976910114,0.00035361479967832565,-0.00012121799954911694,0.0007924837991595268,-0.0004832032136619091,0.001385713811032474,0.0014740965561941266
429,-0.004228783305734396,-0.00037152061122469604,-0.0022072698920965195,0.00035367393866181374,-0.0001213746436405927,0.0007914119632914662,-0.0004830422403756529,0.0013855445431545377,0.0014753140276297927
430,-0.004227785859256983,-0.0003760044346563518,-0.0022072168067097664,0.00035393788130022585,-0.00012176196469226852,0.0007903649820946157,-0.00048284302465617657,0.0013852634001523256,0.0014759838813915849
431,-0.004226066172122955,-0.0003754979989025742,-0.002207427751272917,0.0003541447804309428,-0.0001223262370331213,0.0007894230075180531,-0.00048275417066179216,0.0013847964582964778,0.0014767325483262539
432,-0.004224832635372877,-0.000374460534658283,-0.0022081490606069565,0.00035418319748714566,-0.00012288207653909922,0.0007884394726715982,-0.0004827778902836144,0.001384287723340094,0.0014777359319850802
433,-0.004221792798489332,-0.0003732421901077032,-0.0022091292776167393,0.0003541134938132018,-0.00012334532220847905,0.0007876167655922472,-0.00048298444016836584,0.0013836495345458388,0.0014784404775127769
434,-0.004219778347760439,-0.0003722130786627531,-0.002210120903328061,0.00035412475699558854,-0.00012366085138637573,0.0007871933048591018,-0.00048328409320674837,0.0013826779322698712,0.0014790695859119296
435,-0.0042178756557404995,-0.0003738443774636835,-0.002210653619840741,0.00035397629835642874,-0.0001234145020134747,0.000786716234870255,-0.0004834850551560521,0.0013816002756357193,0.001479830709286034
436,-0.00421674270182848,-0.00037819991121068597,-0.0022111372090876102,0.0003536027215886861,-0.00012324585986789316,0.0007865032530389726,-0.0004835279250983149,0.0013805803610011935,0.0014802246587350965
437,-0.004217160400003195,-0.0003825788735412061,-0.002211937215179205,0.00035322108305990696,-0.00012278181384317577,0.0007870016270317137,-0.0004836844454985112,0.00137950642965734,0.001479626283980906
438,-0.004218735732138157,-0.00038775100256316364,-0.0022129276767373085,0.0003528866800479591,-0.00012216245522722602,0.000787683529779315,-0.00048377548228017986,0.0013788071228191257,0.0014777752803638577
439,-0.004220043774694204,-0.00038946428685449064,-0.0022137293126434088,0.000352270930306986,-0.00012160234473412856,0.0007882394711486995,-0.00048381954547949135,0.0013782276073470712,0.0014752662973478436
440,-0.004221941810101271,-0.000387646141462028,-0.0022142422385513783,0.0003518176672514528,-0.00012131388211855665,0.0007889008265919983,-0.00048370304284617305,0.0013774414546787739,0.0014725548680871725
441,-0.0042238919995725155,-0.00038681458681821823,-0.002214558655396104,0.0003514128038659692,-0.00012111334217479452,0.0007893818547017872,-0.0004836461739614606,0.0013767840573564172,0.0014700426254421473
442,-0.0042262631468474865,-0.0003849257482215762,-0.002214634558185935,0.00035118163214065135,-0.00012086489732610062,0.0007897302275523543,-0.00048395569319836795,0.0013762859161943197,0.001467730151489377
443,-0.004228587727993727,-0.0003812583163380623,-0.0022146666888147593,0.0003510710666887462,-0.0001205947992275469,0.0007900993805378675,-0.00048451038310304284,0.0013758204877376556,0.0014655510894954205
444,-0.004231250379234552,-0.0003766838344745338,-0.0022144517861306667,0.00035102618858218193,-0.0001204858926939778,0.0007902844808995724,-0.00048496536328457296,0.001375277410261333,0.0014635249972343445
445,-0.004233442712575197,-0.00037222946411930025,-0.0022134538739919662,0.0003508913505356759,-0.00012041348236380145,0.00079028878826648,-0.00048546254402026534,0.0013746675103902817,0.0014629676006734371
446,-0.004234895575791597,-0.0003722695983015001,-0.0022122638765722513,0.0003506775829009712,-0.00012020394206047058,0.0007903855293989182,-0.0004859955224674195,0.0013737151166424155,0.0014629807556048036
447,-0.0042358217760920525,-0.00036808624281547964,-0.0022113658487796783,0.0003503187035676092,-0.00012002679432043806,0.0007903414079919457,-0.0004864641232416034,0.0013729934580624104,0.0014634253457188606
448,-0.0042365845292806625,-0.00036383519181981683,-0.002210470847785473,0.00034974838490597904,-0.00011981942225247622,0.0007903007790446281,-0.0004869026888627559,0.0013724762247875333,0.0014647211646661162
449,-0.004237663932144642,-0.0003617245238274336,-0.002209732308983803,0.00034899747697636485,-0.00011966709280386567,0.0007902373909018934,-0.00048729838454164565,0.0013719589915126562,0.001466072048060596
450,-0.004237704444676638,-0.0003588791296351701,-0.0022092717699706554,0.00034828318166546524,-0.00011957580136368051,0.0007897501927800477,-0.000487647601403296,0.0013714751694351435,0.0014680060558021069
451,-0.004236984066665173,-0.0003554572176653892,-0.002208627760410309,0.0003476404817774892,-0.00011961545533267781,0.0007893249276094139,-0.00048781081568449736,0.001371063175611198,0.0014698582235723734
452,-0.004235964734107256,-0.00035214691888540983,-0.0022083206567913294,0.00034706381848081946,-0.00011958068353123963,0.0007890624110586941,-0.0004879222542513162,0.001370714628137648,0.0014722960768267512
453,-0.004234611988067627,-0.0003530750109348446,-0.0022082009818404913,0.0003468618087936193,-0.00011939257092308253,0.0007889748667366803,-0.00048784399405121803,0.0013705345336347818,0.0014736853772774339
454,-0.004232842940837145,-0.0003545982181094587,-0.002208549762144685,0.00034685732680372894,-0.00011929069296456873,0.0007891491404734552,-0.00048773703747428954,0.001370541751384735,0.0014757383614778519
455,-0.004230457823723555,-0.00035719622974283993,-0.00220883684232831,0.00034699548268690705,-0.00011892514157807454,0.0007894359878264368,-0.00048764486564323306,0.0013705157907679677,0.0014778445474803448
456,-0.004227808210998774,-0.0003597675240598619,-0.0022089406847953796,0.00034699763637036085,-0.00011854058539029211,0.0007897386676631868,-0.00048751573194749653,0.0013705851742997766,0.0014804331585764885
457,-0.004224739968776703,-0.00036126127815805376,-0.0022088780533522367,0.00034712633350864053,-0.00011817954509751871,0.0007900377968326211,-0.00048743252409622073,0.0013706954196095467,0.0014826204860582948
458,-0.004222324583679438,-0.00036494838423095644,-0.0022085041273385286,0.0003471696691121906,-0.00011801911023212597,0.0007901668432168663,-0.00048742396757006645,0.0013709458289667964,0.00148596684448421
459,-0.0042200167663395405,-0.00036959105636924505,-0.0022083253134042025,0.00034708555904217064,-0.00011802961671492085,0.000790275284089148,-0.00048743124352768064,0.0013711866922676563,0.0014893901534378529
460,-0.004215718246996403,-0.0003719901433214545,-0.0022082931827753782,0.000347237684763968,-0.00011815485777333379,0.0007902279030531645,-0.00048753057490102947,0.0013715289533138275,0.0014927322044968605
461,-0.00421147421002388,-0.0003699787484947592,-0.002208310179412365,0.00034753885120153427,-0.0001182214473374188,0.0007901903009042144,-0.0004875003651250154,0.0013718027621507645,0.0014955135993659496
462,-0.0042074741795659065,-0.00036596626159735024,-0.002208297373726964,0.00034779973793774843,-0.00011823113163700327,0.0007900912896730006,-0.0004874814476352185,0.0013721308205276728,0.0014976466773077846
463,-0.004202676005661488,-0.0003597502945922315,-0.0022080985363572836,0.0003479499137029052,-0.00011819448263850063,0.0007899106130935252,-0.00048743232036940753,0.0013725300086662173,0.0014994415687397122
464,-0.0041974694468081,-0.0003522511979099363,-0.002207708777859807,0.00034830631921067834,-0.00011817596532637253,0.0007895117742009461,-0.00048733953735791147,0.0013732205843552947,0.0015000461135059595
465,-0.004193402826786041,-0.0003461232699919492,-0.0022075327578932047,0.00034871301613748074,-0.0001181769257527776,0.0007892085122875869,-0.0004871862765867263,0.0013738601701334119,0.0014993156073614955
466,-0.004189698025584221,-0.00034148874692618847,-0.0022072279825806618,0.0003491621755529195,-0.00011826441186713055,0.000788864737842232,-0.0004871206474490464,0.001374455401673913,0.0014972815988585353
467,-0.004185771103948355,-0.0003390883794054389,-0.0022072806023061275,0.0003495542914606631,-0.0001184874854516238,0.0007885207887738943,-0.0004873121506534517,0.0013748975470662117,0.0014955351362004876
468,-0.004182395059615374,-0.00033833057386800647,-0.0022074184380471706,0.00034992751898244023,-0.00011875796189997345,0.0007880465127527714,-0.00048750871792435646,0.0013750813668593764,0.001494524534791708
469,-0.004179676529020071,-0.00033937444095499814,-0.0022072773426771164,0.00035017248592339456,-0.00011909710156032816,0.0007876248564571142,-0.00048767708358354867,0.0013752739178016782,0.0014926419826224446
470,-0.004177568946033716,-0.0003408919437788427,-0.0022069241385906935,0.0003503890766296536,-0.00011968632315983996,0.000787361990660429,-0.00048802144010551274,0.0013753834646195173,0.0014898072695359588
471,-0.004175911657512188,-0.0003430985379964113,-0.002206672914326191,0.00035062682582065463,-0.00012019187852274626,0.000787431257776916,-0.0004884594236500561,0.0013754329411312938,0.0014870697632431984
472,-0.004173599649220705,-0.00034436292480677366,-0.002207184210419655,0.0003511686227284372,-0.00012112320109736174,0.0007877260213717818,-0.0004888438852503896,0.0013755521504208446,0.001484584528952837
473,-0.004172449000179768,-0.00034650840098038316,-0.0022075865417718887,0.0003516397555358708,-0.00012197098840260878,0.000788018514867872,-0.0004891738062724471,0.001375609077513218,0.001482819439843297
474,-0.004171587061136961,-0.00034832730307243764,-0.0022080799099057913,0.0003519849560689181,-0.00012270091974642128,0.0007884885999374092,-0.0004895104793831706,0.0013755501713603735,0.001480290899053216
475,-0.004169064573943615,-0.00035388662945479155,-0.002208166290074587,0.00035223670420236886,-0.00012331196921877563,0.0007891528657637537,-0.0004898495390079916,0.0013753612292930484,0.0014778791228309274
476,-0.004166836850345135,-0.00036044445005245507,-0.002208259655162692,0.00035249607753939927,-0.00012408700422383845,0.000789797690231353,-0.0004901389474980533,0.0013751559890806675,0.0014758058823645115
477,-0.004165541380643845,-0.0003682845854200423,-0.00220840354450047,0.00035283525357954204,-0.00012481689918786287,0.0007899418123997748,-0.0004903461085632443,0.0013750647194683552,0.001474295393563807
478,-0.004164853133261204,-0.0003744011919479817,-0.0022085735108703375,0.00035315798595547676,-0.00012540358875412494,0.0007900110795162618,-0.0004904347588308156,0.001374997547827661,0.0014722620835527778
479,-0.0041642808355391026,-0.00037462395266629755,-0.0022085923701524734,0.00035337137524038553,-0.0001260864664800465,0.0007899798220023513,-0.0004906177055090666,0.0013748346827924252,0.0014710689429193735
480,-0.004164176061749458,-0.0003736410290002823,-0.0022086319513618946,0.00035350408870726824,-0.00012682974920608103,0.0007899572956375778,-0.0004909475101158023,0.0013748414348810911,0.0014702603220939636
481,-0.004164154641330242,-0.0003719546366482973,-0.0022084738593548536,0.0003535528667271137,-0.0001275839749723673,0.0007900319178588688,-0.0004912435542792082,0.0013749189674854279,0.0014691561227664351
482,-0.00416429340839386,-0.00037014702684246004,-0.002208378165960312,0.0003537569718901068,-0.00012819631956517696,0.0007903374498710036,-0.0004914762102998793,0.0013748963829129934,0.001467722817324102
483,-0.004164399113506079,-0.00036233922583051026,-0.0022081341594457626,0.0003539120079949498,-0.00012866815086454153,0.0007905720849521458,-0.0004918454214930534,0.001374882529489696,0.0014659555163234472
